{"learner":{"attributes":{"best_iteration":"99","best_ntree_limit":"100","scikit_learn":"{\"use_label_encoder\": null, \"n_estimators\": 100, \"objective\": \"binary:logistic\", \"max_depth\": 7, \"max_leaves\": null, \"max_bin\": null, \"grow_policy\": null, \"learning_rate\": 0.5, \"verbosity\": null, \"booster\": \"dart\", \"tree_method\": \"auto\", \"gamma\": null, \"min_child_weight\": 1.0, \"max_delta_step\": null, \"subsample\": 1.0, \"sampling_method\": null, \"colsample_bytree\": 0.9, \"colsample_bylevel\": null, \"colsample_bynode\": null, \"reg_alpha\": null, \"reg_lambda\": null, \"scale_pos_weight\": null, \"base_score\": null, \"missing\": NaN, \"num_parallel_tree\": null, \"random_state\": null, \"n_jobs\": null, \"monotone_constraints\": null, \"interaction_constraints\": null, \"importance_type\": null, \"gpu_id\": null, \"validate_parameters\": null, \"predictor\": null, \"enable_categorical\": false, \"feature_types\": null, \"max_cat_to_onehot\": null, \"max_cat_threshold\": null, \"eval_metric\": null, \"early_stopping_rounds\": null, \"callbacks\": null, \"kwargs\": {\"early_stopping\": null, \"min_split_loss\": 0.0, \"sample_type\": \"uniform\", \"lambda\": 1.0, \"alpha\": 0}, \"classes_\": [0, 1], \"n_classes_\": 2, \"_estimator_type\": \"classifier\"}"},"feature_names":["ApplicantIncome","CoapplicantIncome","LoanAmount","Loan_Amount_Term","Credit_History","Gender_Female","Gender_Male","Married_No","Married_Yes","Dependents_0","Dependents_1","Dependents_2","Dependents_3+","Education_Graduate","Education_Not Graduate","Self_Employed_No","Self_Employed_Yes","Property_Area_Rural","Property_Area_Semiurban","Property_Area_Urban"],"feature_types":["int","float","float","float","float","int","int","int","int","int","int","int","int","int","int","int","int","int","int","int"],"gradient_booster":{"gbtree":{"model":{"gbtree_model_param":{"num_parallel_tree":"1","num_trees":"100","size_leaf_vector":"0"},"tree_info":[0,0,0,0,0,0,0,0,0,0,0,0,0,0,0,0,0,0,0,0,0,0,0,0,0,0,0,0,0,0,0,0,0,0,0,0,0,0,0,0,0,0,0,0,0,0,0,0,0,0,0,0,0,0,0,0,0,0,0,0,0,0,0,0,0,0,0,0,0,0,0,0,0,0,0,0,0,0,0,0,0,0,0,0,0,0,0,0,0,0,0,0,0,0,0,0,0,0,0,0],"trees":[{"base_weights":[7.070707E-1,-1.5844156E0,1.1184834E0,-6.666667E-1,-1.6521739E0,1.1476997E0,-1.5384616E-1,1.3548387E0,9E-1,5E-1,-6.666667E-1,8.484849E-1,1.5354838E0,1.6666667E-1,9.777778E-1,1.12E0,-0E0,6E-1,-1E0,-0E0,1.0352942E0,1.255814E0,1.8181819E-1,5.4545456E-1,-4.6153846E-1,9.0909094E-1,1.5384616E-1,6.666667E-1,-6.666667E-1,1.060241E0,-0E0,1.3846154E0,-0E0,-6.666667E-1,-0E0,-5E-1,6.666667E-1,8.679245E-1,1.3125E0],"categories":[],"categories_nodes":[],"categories_segments":[],"categories_sizes":[],"default_left":[1,1,1,0,0,1,1,1,1,0,0,1,0,1,1,1,1,1,0,1,1,1,0,0,1,0,1,0,0,1,0,0,0,0,0,0,0,0,0],"id":0,"left_children":[1,3,5,-1,-1,7,9,11,13,-1,-1,15,-1,17,19,21,23,25,-1,27,29,31,-1,-1,33,-1,35,-1,-1,37,-1,-1,-1,-1,-1,-1,-1,-1,-1],"loss_changes":[1.1843704E2,9.561157E-2,4.098297E0,0E0,0E0,4.0782166E0,1.4230769E0,3.659439E0,2.6888885E0,0E0,0E0,3.8012123E0,0E0,3.6333332E0,2.5307198E0,1.364399E0,1.5104895E0,5.4965043E-1,0E0,2E0,1.0976639E0,1.7388191E0,0E0,0E0,3.076923E-1,0E0,1.4230769E0,0E0,0E0,8.7416077E-1,0E0,0E0,0E0,0E0,0E0,0E0,0E0,0E0,0E0],"parents":[2147483647,0,0,1,1,2,2,5,5,6,6,7,7,8,8,11,11,13,13,14,14,15,15,16,16,17,17,19,19,20,20,21,21,24,24,26,26,29,29],"right_children":[2,4,6,-1,-1,8,10,12,14,-1,-1,16,-1,18,20,22,24,26,-1,28,30,32,-1,-1,34,-1,36,-1,-1,38,-1,-1,-1,-1,-1,-1,-1,-1,-1],"split_conditions":[4.210993E-1,2.4E2,4.2E2,-3.3333334E-1,-8.2608694E-1,1.325E2,5E-1,8.75E1,9.210993E-1,2.5E-1,-3.3333334E-1,5E-1,7.677419E-1,5E-1,1.355E2,5E-1,5.85E1,1.6905E3,-5E-1,5E-1,4.98E2,8.2E1,9.090909E-2,2.7272728E-1,6.9E1,4.5454547E-1,4.4165E3,3.3333334E-1,-3.3333334E-1,2.151E3,-0E0,6.923077E-1,-0E0,-3.3333334E-1,-0E0,-2.5E-1,3.3333334E-1,4.3396226E-1,6.5625E-1],"split_indices":[4,3,3,0,0,2,7,2,4,0,0,17,0,7,2,10,2,1,0,17,2,2,0,0,2,0,1,0,0,1,0,0,0,0,0,0,0,0,0],"split_type":[0,0,0,0,0,0,0,0,0,0,0,0,0,0,0,0,0,0,0,0,0,0,0,0,0,0,0,0,0,0,0,0,0,0,0,0,0,0,0],"sum_hessian":[1.2275E2,1.825E1,1.045E2,2E0,1.625E1,1.0225E2,2.25E0,5.325E1,4.9E1,1E0,1.25E0,1.55E1,3.775E1,5E0,4.4E1,1.15E1,4E0,4E0,1E0,2.5E0,4.15E1,9.75E0,1.75E0,1.75E0,2.25E0,1.75E0,2.25E0,1.25E0,1.25E0,4.05E1,1E0,8.75E0,1E0,1.25E0,1E0,1E0,1.25E0,2.55E1,1.5E1],"tree_param":{"num_deleted":"0","num_feature":"20","num_nodes":"39","size_leaf_vector":"0"}},{"base_weights":[4.1463304E-1,-1.025118E0,6.598617E-1,-1.0610936E0,-2.537176E-1,4.9058333E-1,9.1873145E-1,-1.2551261E0,-5.2791977E-1,-3.2541713E-1,5.6611687E-1,2.0520926E-2,9.9007624E-1,3.4994105E-1,-9.015335E-1,3.1349322E-1,-8.966778E-1,9.1859335E-1,3.7894988E-1,5.0860643E-1,-5.501346E-1,3.177576E-1,1.0583371E0,-2.1081021E-1,7.610285E-1,-1.3617424E0,-1.1417387E-2,1.0692594E0,-9.832346E-2,5.409362E-1,-2.184927E-1,-1.12874664E-1,6.3129514E-1,1.0911531E0,1.4986819E-1,4.029105E-2,1.1978915E0,-9.5706487E-1,8.2289135E-1,-2.4672475E-1,7.101372E-1,-1.0159632E0,4.2794517E-1,1.1231201E0,4.131051E-1,1.2479796E0,3.125112E-1,1.0072014E0,-7.7326035E-1,9.44585E-1,4.2969835E-1,7.0706993E-1,-1.04612336E-1,8.61065E-1,1.2929337E0],"categories":[],"categories_nodes":[],"categories_segments":[],"categories_sizes":[],"default_left":[1,1,1,1,0,1,1,0,1,1,1,1,1,0,0,1,1,1,1,0,0,1,1,0,0,0,0,1,1,1,1,0,0,1,0,0,1,0,0,1,1,0,1,1,0,0,0,0,0,0,0,0,0,0,0],"id":1,"left_children":[1,3,5,7,-1,9,11,-1,13,15,17,19,21,-1,-1,23,25,27,29,-1,-1,31,33,-1,-1,-1,-1,35,37,39,41,-1,-1,43,-1,-1,45,-1,-1,47,49,-1,51,53,-1,-1,-1,-1,-1,-1,-1,-1,-1,-1,-1],"loss_changes":[4.0265152E1,1.9452286E-1,3.774395E0,9.566021E-1,0E0,3.9096107E0,2.3491325E0,0E0,2.2512612E0,2.381898E0,3.3256378E0,1.3220483E0,1.2347641E0,0E0,0E0,9.718321E-1,1.3421893E0,2.9567308E0,3.8029613E0,0E0,0E0,6.902398E-1,7.501755E-1,0E0,0E0,0E0,0E0,2.1084213E0,3.4119601E0,4.2055225E0,4.9886427E0,0E0,0E0,1.7374039E-1,0E0,0E0,2.507553E-1,0E0,0E0,4.7994375E0,1.2477741E0,0E0,9.0379643E-1,1.1111069E-1,0E0,0E0,0E0,0E0,0E0,0E0,0E0,0E0,0E0,0E0,0E0],"parents":[2147483647,0,0,1,1,2,2,3,3,5,5,6,6,8,8,9,9,10,10,11,11,12,12,15,15,16,16,17,17,18,18,21,21,22,22,27,27,28,28,29,29,30,30,33,33,36,36,39,39,40,40,42,42,43,43],"right_children":[2,4,6,8,-1,10,12,-1,14,16,18,20,22,-1,-1,24,26,28,30,-1,-1,32,34,-1,-1,-1,-1,36,38,40,42,-1,-1,44,-1,-1,46,-1,-1,48,50,-1,52,54,-1,-1,-1,-1,-1,-1,-1,-1,-1,-1,-1],"split_conditions":[4.210993E-1,4.341E3,5E-1,4.3165E3,-1.268588E-1,2.0295E3,9.210993E-1,-6.2756306E-1,5.351E3,1.125E2,3.3615E3,1.43E2,3.3E2,1.7497052E-1,-4.5076674E-1,7.85E1,5E-1,1.585E2,2.0485E3,2.5430322E-1,-2.750673E-1,3.4905E3,4.2E2,-1.0540511E-1,3.8051426E-1,-6.808712E-1,-5.7086935E-3,6.55E1,1.745E2,1.07E2,3.0835E3,-5.6437332E-2,3.1564757E-1,2.565E2,7.4934095E-2,2.0145524E-2,3.625E3,-4.7853243E-1,4.1144568E-1,5.25E1,5E-1,-5.079816E-1,5E-1,7.68E2,2.0655255E-1,6.239898E-1,1.562556E-1,5.036007E-1,-3.8663018E-1,4.722925E-1,2.1484917E-1,3.5353497E-1,-5.2306168E-2,4.305325E-1,6.4646685E-1],"split_indices":[4,1,18,0,0,0,4,0,0,2,0,2,3,0,0,2,17,2,1,0,0,0,3,0,0,0,0,2,2,2,1,0,0,2,0,0,1,0,0,2,9,0,7,1,0,0,0,0,0,0,0,0,0,0,0],"split_type":[0,0,0,0,0,0,0,0,0,0,0,0,0,0,0,0,0,0,0,0,0,0,0,0,0,0,0,0,0,0,0,0,0,0,0,0,0,0,0,0,0,0,0,0,0,0,0,0,0,0,0,0,0,0,0],"sum_hessian":[1.11127686E2,1.5710458E1,9.541723E1,1.4651611E1,1.0588462E0,5.9442253E1,3.597497E1,9.749506E0,4.9021053E0,4.7558503E0,5.46864E1,2.7419717E0,3.3233E1,1.4823847E0,3.4197206E0,2.4579978E0,2.2978525E0,1.761175E1,3.7074654E1,1.536514E0,1.2054577E0,3.5843983E0,2.9648603E1,1.3755018E0,1.082496E0,1.153586E0,1.1442666E0,1.5294282E1,2.3174675E0,2.924103E1,7.833623E0,1.7798442E0,1.8045541E0,2.8420885E1,1.2277185E0,1.8454205E0,1.3448861E1,1.1792623E0,1.1382052E0,5.0896463E0,2.4151384E1,3.2511933E0,4.5824294E0,2.6514442E1,1.9064415E0,1.2341151E1,1.1077101E0,1.2351931E0,3.8544533E0,1.1864436E1,1.2286947E1,2.791603E0,1.7908263E0,1.2812668E1,1.3701775E1],"tree_param":{"num_deleted":"0","num_feature":"20","num_nodes":"55","size_leaf_vector":"0"}},{"base_weights":[2.7524036E-1,-7.734279E-1,4.3955052E-1,-9.568576E-2,-8.5691285E-1,5.676205E-1,2.4906315E-1,-1.955249E-1,-9.072878E-1,6.199072E-1,-7.2502476E-1,-6.016055E-1,3.4323853E-1,3.5206535E-1,9.3453807E-1,1.5630491E-2,-9.590471E-1,1.9102015E-1,7.1846545E-1,-6.7908084E-1,4.306495E-1,1.0192181E0,2.5470382E-1,-4.5844567E-1,3.463216E-1,1.0267285E0,6.594015E-2,-1.2636708E-1,6.151333E-1,1.9953653E-1,1.0567373E0,-5.09707E-1,8.7561446E-1,-1.0306126E0,1.8274044E-1,5.03899E-1,-4.1237763E-1,1.1300232E0,3.347438E-1,3.6106643E-1,-2.529544E-1,-7.6245004E-1,2.605369E-1,1.0927293E0,4.6997318E-1,5.0483495E-1,1.157359E0,7.245741E-1,-4.9397874E-1,1.0582895E0,3.3089325E-1,-1.0853662E-2,-7.713213E-1],"categories":[],"categories_nodes":[],"categories_segments":[],"categories_sizes":[],"default_left":[1,1,1,0,1,1,1,0,0,1,0,1,1,1,1,0,0,1,1,0,1,1,1,1,1,1,1,1,1,0,1,0,0,0,1,1,1,0,0,0,0,0,0,0,0,0,0,0,0,0,0,0,0],"id":2,"left_children":[1,3,5,-1,7,9,11,-1,-1,13,-1,15,17,19,21,-1,-1,23,25,-1,27,29,31,33,35,37,39,41,43,-1,45,-1,-1,-1,47,49,51,-1,-1,-1,-1,-1,-1,-1,-1,-1,-1,-1,-1,-1,-1,-1,-1],"loss_changes":[1.7165833E1,6.869526E-1,1.9337368E0,0E0,2.2154427E-1,3.8343773E0,3.0888307E0,0E0,0E0,3.7727814E0,0E0,8.863276E-1,1.7492812E0,2.552927E0,9.9409676E-1,0E0,0E0,2.666167E0,1.776835E0,0E0,2.8042507E0,3.744564E-1,2.2239423E0,2.1061733E0,2.6744077E0,6.198311E-2,4.6880314E-1,2.0274065E0,8.800669E-1,0E0,4.1345978E-1,0E0,0E0,0E0,1.5732594E0,1.3315234E0,5.822666E-1,0E0,0E0,0E0,0E0,0E0,0E0,0E0,0E0,0E0,0E0,0E0,0E0,0E0,0E0,0E0,0E0],"parents":[2147483647,0,0,1,1,2,2,4,4,5,5,6,6,9,9,11,11,12,12,13,13,14,14,17,17,18,18,20,20,21,21,22,22,23,23,24,24,25,25,26,26,27,27,28,28,30,30,34,34,35,35,36,36],"right_children":[2,4,6,-1,8,10,12,-1,-1,14,-1,16,18,20,22,-1,-1,24,26,-1,28,30,32,34,36,38,40,42,44,-1,46,-1,-1,-1,48,50,52,-1,-1,-1,-1,-1,-1,-1,-1,-1,-1,-1,-1,-1,-1,-1,-1],"split_conditions":[4.210993E-1,2.4E2,1.4520609E2,-4.784288E-2,2.1435E3,4.3165E3,1.4720609E2,-9.776245E-2,-4.536439E-1,7.68E2,-3.6251238E-1,5E-1,3.0065E3,2.389E3,4.1045E3,7.815246E-3,-4.7952354E-1,3.802E3,2.275E2,-3.3954042E-1,5E-1,5E-1,4.5955E3,1.9155E3,2.0485E3,5E-1,5E-1,9.55E1,6.65E1,9.9768266E-2,2.0225E3,-2.548535E-1,4.3780723E-1,-5.153063E-1,2.5345E3,5.623E3,1.83E2,5.650116E-1,1.673719E-1,1.8053322E-1,-1.264772E-1,-3.8122502E-1,1.3026845E-1,5.4636467E-1,2.3498659E-1,2.5241747E-1,5.786795E-1,3.6228704E-1,-2.4698937E-1,5.2914476E-1,1.6544662E-1,-5.426831E-3,-3.8566065E-1],"split_indices":[4,3,2,0,0,1,2,0,0,1,0,19,1,0,0,0,0,0,2,0,13,15,0,1,1,19,9,2,2,0,0,0,0,0,1,0,2,0,0,0,0,0,0,0,0,0,0,0,0,0,0,0,0],"split_type":[0,0,0,0,0,0,0,0,0,0,0,0,0,0,0,0,0,0,0,0,0,0,0,0,0,0,0,0,0,0,0,0,0,0,0,0,0,0,0,0,0,0,0,0,0,0,0,0,0,0,0,0,0],"sum_hessian":[9.665063E1,1.2590136E1,8.406049E1,1.6161501E0,1.0973986E1,4.908168E1,3.4978813E1,1.1221626E0,9.851823E0,4.767374E1,1.407939E0,2.9493897E0,3.2029423E1,2.6896238E1,2.0777502E1,1.4323153E0,1.5170742E0,2.3859438E1,8.169986E0,1.3635036E0,2.5532734E1,1.80322E1,2.745302E0,4.2276344E0,1.9631804E1,5.15922E0,3.0107656E0,6.430871E0,1.9101864E1,1.0658062E0,1.6966394E1,1.3107362E0,1.4345658E0,1.9131068E0,2.3145275E0,1.6533691E1,3.0981116E0,3.9383178E0,1.2209024E0,1.4949734E0,1.515792E0,2.0651128E0,4.365758E0,2.9309387E0,1.6170925E1,3.5441523E0,1.3422242E1,1.2460932E0,1.0684344E0,2.715355E0,1.3818337E1,1.948597E0,1.1495147E0],"tree_param":{"num_deleted":"0","num_feature":"20","num_nodes":"53","size_leaf_vector":"0"}},{"base_weights":[1.8243124E-1,-5.771017E-1,2.9121816E-1,-8.383802E-1,-2.4156676E-1,1.7322014E-1,4.974341E-1,-2.1764868E-1,-9.5580983E-1,-5.083427E-1,2.7845797E-1,5.765783E-1,9.510149E-2,6.807257E-1,1.8407685E-1,-8.5866794E-2,-7.613067E-1,-9.0622894E-2,7.2682256E-1,1.395147E-1,-7.151621E-1,4.4564074E-3,7.754745E-1,-1.8401381E-1,6.6362715E-1,3.904098E-1,9.4384146E-1,-3.6935237E-1,2.0123003E-1,-1.5454935E-1,1.622928E-1,8.9839536E-1,2.4520062E-1,2.1663696E-1,-7.0235515E-1,-7.092159E-2,8.692926E-1,8.70185E-1,-2.903709E-1,6.0210746E-2,-8.771239E-1,5.947635E-1,1.8056262E-2,-1.3743049E-1,6.6799873E-1,6.1018527E-1,-4.712906E-1,-1.5541799E0,4.499201E-1,-4.7154137E-1,6.781695E-1,-1.643965E-1,6.828829E-1,-3.5570237E-1,3.485095E-1,1.6308464E-1,7.369386E-1],"categories":[],"categories_nodes":[],"categories_segments":[],"categories_sizes":[],"default_left":[1,1,1,1,1,1,1,0,0,1,0,1,1,1,1,0,0,0,1,1,0,1,1,1,1,1,0,1,1,0,0,0,1,1,1,0,0,0,0,1,0,1,1,0,0,1,0,0,0,0,0,0,0,0,0,0,0],"id":3,"left_children":[1,3,5,7,9,11,13,-1,-1,15,-1,17,19,21,23,-1,-1,-1,25,27,-1,29,31,33,35,37,-1,39,41,-1,-1,-1,43,45,47,-1,-1,-1,-1,49,-1,51,53,-1,-1,55,-1,-1,-1,-1,-1,-1,-1,-1,-1,-1,-1],"loss_changes":[7.267967E0,7.706499E-1,1.7589192E0,2.1738052E-1,1.0106292E0,1.5132034E0,1.4290633E0,0E0,0E0,4.1494644E-1,0E0,8.554318E-1,1.6431235E0,1.0668936E0,2.1270664E0,0E0,0E0,0E0,1.08964205E-1,1.3774744E0,0E0,1.0184238E-1,7.34355E-1,1.6492462E0,8.3958983E-1,1.6473061E0,0E0,1.108702E0,2.703567E0,0E0,0E0,0E0,7.6018095E-1,1.5952929E0,4.015436E0,0E0,0E0,0E0,0E0,1.4889966E0,0E0,9.1023684E-1,3.4248636E0,0E0,0E0,7.863927E-2,0E0,0E0,0E0,0E0,0E0,0E0,0E0,0E0,0E0,0E0,0E0],"parents":[2147483647,0,0,1,1,2,2,3,3,4,4,5,5,6,6,9,9,11,11,12,12,13,13,14,14,18,18,19,19,21,21,22,22,23,23,24,24,25,25,27,27,28,28,32,32,33,33,34,34,39,39,41,41,42,42,45,45],"right_children":[2,4,6,8,10,12,14,-1,-1,16,-1,18,20,22,24,-1,-1,-1,26,28,-1,30,32,34,36,38,-1,40,42,-1,-1,-1,44,46,48,-1,-1,-1,-1,50,-1,52,54,-1,-1,56,-1,-1,-1,-1,-1,-1,-1,-1,-1,-1,-1],"split_conditions":[4.210993E-1,1.29E2,5E-1,2.5415E3,5E-1,3.51E2,1.4520609E2,-1.0882434E-1,-4.7790492E-1,4.931E3,1.3922898E-1,2.86E3,1.8249E4,5E-1,2.06E2,-4.2933397E-2,-3.8065335E-1,-4.5311447E-2,6.2335E3,2.0295E3,-3.5758105E-1,9.1E1,4.209E3,5.909E3,6.0325E3,1.18E2,4.7192073E-1,1.8365E3,3.3615E3,-7.727467E-2,8.11464E-2,4.4919768E-1,4.9905E3,5E-1,5E-1,-3.5460796E-2,4.346463E-1,4.350925E-1,-1.4518546E-1,1.6125E3,-4.3856195E-1,5.95E1,5.283E3,-6.8715245E-2,3.3399937E-1,1.59E2,-2.356453E-1,-7.7708995E-1,2.2496004E-1,-2.3577069E-1,3.3908474E-1,-8.219825E-2,3.4144145E-1,-1.7785119E-1,1.7425475E-1,8.154232E-2,3.684693E-1],"split_indices":[4,2,18,0,18,3,2,0,0,0,0,0,0,15,2,0,0,0,0,0,0,2,0,0,0,2,0,0,0,0,0,0,0,10,10,0,0,0,0,0,0,2,0,0,0,2,0,0,0,0,0,0,0,0,0,0,0],"split_type":[0,0,0,0,0,0,0,0,0,0,0,0,0,0,0,0,0,0,0,0,0,0,0,0,0,0,0,0,0,0,0,0,0,0,0,0,0,0,0,0,0,0,0,0,0,0,0,0,0,0,0,0,0,0,0,0,0],"sum_hessian":[8.492691E1,1.010068E1,7.4826225E1,4.836162E0,5.2645187E0,4.876347E1,2.6062757E1,1.2232927E0,3.6128693E0,3.4943566E0,1.7701623E0,6.876503E0,4.1886967E1,1.5704428E1,1.0358331E1,1.8103421E0,1.6840144E0,1.3368185E0,5.5396843E0,4.049511E1,1.3918546E0,2.0585518E0,1.3645876E1,6.208852E0,4.149479E0,3.269862E0,2.2698224E0,3.8408685E0,3.6654243E1,1.0358515E0,1.0227003E0,1.0514368E1,3.1315079E0,3.8302927E0,2.3785589E0,1.050982E0,3.0984967E0,1.7548958E0,1.5149662E0,2.5581517E0,1.2827166E0,1.09284315E1,2.5725811E1,1.9981436E0,1.1333643E0,2.5083373E0,1.3219556E0,1.1670325E0,1.2115264E0,1.5023339E0,1.0558178E0,1.0465612E0,9.88187E0,1.2036048E1,1.3689762E1,1.0591162E0,1.449221E0],"tree_param":{"num_deleted":"0","num_feature":"20","num_nodes":"57","size_leaf_vector":"0"}},{"base_weights":[1.19188905E-1,-4.5653442E-1,1.9767861E-1,-6.773078E-1,-3.8464654E-2,3.0408958E-1,4.9698837E-3,-9.645424E-2,-9.0244347E-1,6.555405E-1,-5.0196886E-1,3.4335843E-1,-4.2658654E-1,1.3474415E-1,-4.7445714E-1,-6.159274E-1,-1.3864163E-1,2.1453367E-1,7.4115604E-1,-1.87021E-1,4.0089273E-1,1.5051557E-1,-1.171017E0,4.1489658E-1,-1.6394386E-1,4.053948E-2,-1.1071295E0,-1.8371543E-1,5.456267E-1,-3.5568833E-1,7.77512E-1,1.615501E-1,7.9448235E-1,-3.616515E-1,5.861891E-1,-3.7867188E-1,4.8499864E-1,2.3052263E-1,-4.9282804E-1,7.5879467E-1,-1.8573673E-1,2.783592E-1,-1.2065262E-1,1.0260614E0,4.5725126E-3,-5.3039417E-2,-6.5574396E-1,1.03760876E-1,-5.3469604E-1,-1.07953675E-1,6.914815E-1,8.710543E-1,1.4295232E-1],"categories":[],"categories_nodes":[],"categories_segments":[],"categories_sizes":[],"default_left":[1,1,1,1,1,1,1,0,0,0,1,1,0,1,1,0,0,1,0,1,1,1,0,1,1,1,0,1,1,0,0,1,1,1,0,1,1,0,0,1,0,0,0,0,0,0,0,0,0,0,0,0,0],"id":4,"left_children":[1,3,5,7,9,11,13,-1,-1,-1,15,17,-1,19,21,-1,-1,23,-1,25,27,29,-1,31,33,35,-1,37,39,-1,-1,41,43,45,-1,47,49,-1,-1,51,-1,-1,-1,-1,-1,-1,-1,-1,-1,-1,-1,-1,-1],"loss_changes":[3.624333E0,8.678801E-1,1.4241436E0,7.339294E-1,1.746762E0,1.4311523E0,1.6659702E0,0E0,0E0,0E0,4.7464013E-2,2.0468416E0,0E0,1.8770212E0,2.660407E0,0E0,0E0,2.6404076E0,0E0,2.182226E0,1.1016148E0,1.5124092E0,0E0,2.0318599E0,2.059701E0,1.8882413E0,0E0,5.101238E-1,1.6591451E0,0E0,0E0,5.190426E-1,1.593389E0,9.1624224E-1,0E0,4.5212722E-1,6.7200804E-1,0E0,0E0,4.1037416E-1,0E0,0E0,0E0,0E0,0E0,0E0,0E0,0E0,0E0,0E0,0E0,0E0,0E0],"parents":[2147483647,0,0,1,1,2,2,3,3,4,4,5,5,6,6,10,10,11,11,13,13,14,14,17,17,19,19,20,20,21,21,23,23,24,24,25,25,27,27,28,28,31,31,32,32,33,33,35,35,36,36,39,39],"right_children":[2,4,6,8,10,12,14,-1,-1,-1,16,18,-1,20,22,-1,-1,24,-1,26,28,30,-1,32,34,36,-1,38,40,-1,-1,42,44,46,-1,48,50,-1,-1,52,-1,-1,-1,-1,-1,-1,-1,-1,-1,-1,-1,-1,-1],"split_conditions":[4.210993E-1,4.3165E3,5E-1,2.5415E3,5.351E3,1.79165E4,7.2665E3,-4.822712E-2,-4.5122173E-1,3.2777026E-1,7.455E3,6.129E3,-2.1329327E-1,3.6085E3,5E-1,-3.079637E-1,-6.932081E-2,4.317E3,3.7057802E-1,3.414E3,5E-1,1.2438E4,-5.855085E-1,5E-1,2.618E3,2.6335E3,-5.535647E-1,4.495E3,1.8775E3,-1.7784417E-1,3.88756E-1,3.5245E3,2.5415E3,5E-1,2.9309455E-1,5E-1,5E-1,1.1526132E-1,-2.4641402E-1,6.108E3,-9.2868365E-2,1.391796E-1,-6.032631E-2,5.130307E-1,2.2862563E-3,-2.6519708E-2,-3.2787198E-1,5.1880438E-2,-2.6734802E-1,-5.3976838E-2,3.4574074E-1,4.3552715E-1,7.147616E-2],"split_indices":[4,0,7,0,0,0,0,0,0,0,0,0,0,0,17,0,0,0,0,0,9,0,0,18,1,0,0,0,1,0,0,0,1,9,0,13,13,0,0,0,0,0,0,0,0,0,0,0,0,0,0,0,0],"split_type":[0,0,0,0,0,0,0,0,0,0,0,0,0,0,0,0,0,0,0,0,0,0,0,0,0,0,0,0,0,0,0,0,0,0,0,0,0,0,0,0,0,0,0,0,0,0,0,0,0,0,0,0,0],"sum_hessian":[7.720789E1,8.685214E0,6.852268E1,5.277958E0,3.407256E0,4.3773575E1,2.474911E1,1.8732837E0,3.4046743E0,1.1984708E0,2.208785E0,4.204407E1,1.7295011E0,2.0042759E1,4.7063503E0,1.1521643E0,1.0566208E0,3.292181E1,9.122261E0,9.207949E0,1.083481E1,2.8938365E0,1.8125138E0,2.1463163E1,1.1458648E1,8.148587E0,1.0593615E0,2.0966618E0,8.738149E0,1.8405689E0,1.0532676E0,1.3726978E1,7.736185E0,9.478377E0,1.9802706E0,4.2695694E0,3.8790174E0,1.0046228E0,1.092039E0,6.737025E0,2.0011241E0,9.718094E0,4.008885E0,5.751151E0,1.9850342E0,5.2009745E0,4.277403E0,1.1252432E0,3.1443264E0,1.1251441E0,2.7538733E0,5.347785E0,1.3892395E0],"tree_param":{"num_deleted":"0","num_feature":"20","num_nodes":"53","size_leaf_vector":"0"}},{"base_weights":[7.504019E-2,1.0173453E-1,-5.6706816E-1,2.5045663E-1,-5.327493E-3,3.376882E-1,-2.7227828E-1,-7.5388277E-1,4.887979E-2,-2.4198117E-2,4.2024136E-1,-5.989021E-1,9.775914E-2,8.218657E-1,-1.0215384E-2,2.9695442E-1,-3.4098867E-1,6.2578803E-1,6.5363884E-2,-1.5309707E-3,1.4782433E-1,-7.4180096E-1,3.412217E-2,-1.3336445E-2,4.3578836E-1,-4.794981E-1,-6.446448E-2,3.9921677E-1,9.650305E-1,-4.5306063E-1,3.3764008E-1,-2.640639E-1,1.6203578E-1,5.80728E-1,-2.2457153E-1,-6.7972475E-1,7.011558E-3,7.7059245E-1,-7.412207E-2,4.148565E-2,-7.1432984E-1,4.240172E-1,-1.13905855E-1],"categories":[],"categories_nodes":[],"categories_segments":[],"categories_sizes":[],"default_left":[1,1,0,1,1,1,1,0,1,1,1,0,1,0,1,1,1,1,1,0,0,0,1,0,0,0,0,1,0,1,1,1,1,0,0,0,0,0,0,0,0,0,0],"id":5,"left_children":[1,3,-1,5,7,9,11,-1,13,15,17,-1,19,-1,21,23,25,27,29,-1,-1,-1,31,-1,-1,-1,-1,33,-1,35,37,39,41,-1,-1,-1,-1,-1,-1,-1,-1,-1,-1],"loss_changes":[1.2951068E0,1.1184299E0,0E0,1.4319437E0,1.7318286E0,7.7587295E-1,6.333977E-1,0E0,1.8305693E0,6.818072E-1,1.485379E0,0E0,1.5584562E-2,0E0,1.2593626E0,1.5090847E-1,9.694466E-2,6.241889E-1,1.3938551E0,0E0,0E0,0E0,1.4474436E0,0E0,0E0,0E0,0E0,1.2150756E0,0E0,3.6497205E-1,1.186799E0,1.6029274E0,1.9561708E0,0E0,0E0,0E0,0E0,0E0,0E0,0E0,0E0,0E0,0E0],"parents":[2147483647,0,0,1,1,3,3,4,4,5,5,6,6,8,8,9,9,10,10,12,12,14,14,15,15,16,16,17,17,18,18,22,22,27,27,29,29,30,30,31,31,32,32],"right_children":[2,4,-1,6,8,10,12,-1,14,16,18,-1,20,-1,22,24,26,28,30,-1,-1,-1,32,-1,-1,-1,-1,34,-1,36,38,40,42,-1,-1,-1,-1,-1,-1,-1,-1,-1,-1],"split_conditions":[4.2E2,1.265E2,-2.8353408E-1,5E-1,1.295E2,2.389E3,8.3E1,-3.7694138E-1,1.325E2,5E-1,4.228E3,-2.9945105E-1,3.3625E3,4.1093284E-1,1.345E2,9.55E1,5.15E1,3.6085E3,4.5915E3,-7.6548534E-4,7.3912166E-2,-3.7090048E-1,3.756E3,-6.6682226E-3,2.1789418E-1,-2.3974904E-1,-3.223224E-2,3.349E3,4.8251525E-1,5E-1,5.15E3,5E-1,5E-1,2.90364E-1,-1.1228576E-1,-3.3986238E-1,3.505779E-3,3.8529623E-1,-3.7061036E-2,2.0742824E-2,-3.5716492E-1,2.120086E-1,-5.6952927E-2],"split_indices":[3,2,0,10,2,0,2,0,2,7,0,0,0,0,2,2,2,0,0,0,0,0,0,0,0,0,0,0,0,19,0,19,9,0,0,0,0,0,0,0,0,0,0],"split_type":[0,0,0,0,0,0,0,0,0,0,0,0,0,0,0,0,0,0,0,0,0,0,0,0,0,0,0,0,0,0,0,0,0,0,0,0,0,0,0,0,0,0,0],"sum_hessian":[7.11919E1,6.915835E1,2.0335546E0,2.8386583E1,4.077176E1,2.4630379E1,3.7562063E0,1.8815662E0,3.8890194E1,4.7063103E0,1.9924068E1,1.6666238E0,2.0895827E0,1.8453158E0,3.704488E1,2.368159E0,2.3381512E0,1.2133118E1,7.7909503E0,1.0254043E0,1.0641782E0,1.2179246E0,3.5826954E1,1.0114745E0,1.3566846E0,1.0687844E0,1.2693667E0,8.579727E0,3.5533898E0,2.4541597E0,5.3367906E0,1.0435598E1,2.5391356E1,6.699363E0,1.8803642E0,1.32429E0,1.1298697E0,2.1766622E0,3.1601284E0,6.757701E0,3.6778975E0,1.2749885E1,1.2641471E1],"tree_param":{"num_deleted":"0","num_feature":"20","num_nodes":"43","size_leaf_vector":"0"}},{"base_weights":[4.3246843E-2,-4.1673392E-1,1.08713E-1,1.2791398E-1,-5.265151E-1,-3.2345742E-2,2.5836655E-1,-8.2078534E-1,-2.1448207E-1,3.9230287E-1,-1.0364063E-1,9.035125E-1,1.6403586E-1,2.8293976E-1,-7.347966E-1,7.0266175E-1,-1.8956907E-1,-3.0673748E-1,7.7831306E-2,2.39229E-1,-6.293146E-1,-1.0338321E-1,5.079677E-1,-7.7816896E-2,-1.0182945E0,-9.2904456E-2,6.8565446E-1,-2.863486E-1,3.3035272E-1,-2.5692675E-1,6.393137E-1,-8.1609565E-1,7.661814E-2,2.3090772E-1,-5.382001E-1,-3.4780174E-1,4.42554E-1,7.1980325E-3,-6.2308425E-1,6.5584016E-1,-2.8794333E-1,-8.622284E-1,1.6206007E-1,-2.6962496E-2,5.32359E-1],"categories":[],"categories_nodes":[],"categories_segments":[],"categories_sizes":[],"default_left":[1,1,1,0,1,1,1,0,1,1,1,0,1,1,0,0,0,1,1,1,0,0,0,1,0,1,0,1,1,1,0,0,1,0,0,1,1,0,0,0,0,0,0,0,0],"id":6,"left_children":[1,3,5,-1,7,9,11,-1,13,15,17,-1,19,21,-1,-1,-1,23,25,27,-1,-1,-1,29,-1,31,-1,33,35,37,-1,-1,39,-1,-1,41,43,-1,-1,-1,-1,-1,-1,-1,-1],"loss_changes":[2.1423209E0,5.9849215E-1,1.3119946E0,0E0,5.2074504E-1,1.0300226E0,1.6821117E0,0E0,1.5115138E0,1.0193129E0,1.084312E0,0E0,1.7887206E0,3.3913964E-1,0E0,0E0,0E0,2.1653063E0,1.7233725E0,1.330614E0,0E0,0E0,0E0,1.6424301E0,0E0,1.7011847E0,0E0,6.908374E-1,1.8628252E0,9.6402204E-1,0E0,0E0,2.668346E0,0E0,0E0,1.1228602E0,8.454559E-1,0E0,0E0,0E0,0E0,0E0,0E0,0E0,0E0],"parents":[2147483647,0,0,1,1,2,2,4,4,5,5,6,6,8,8,9,9,10,10,12,12,13,13,17,17,18,18,19,19,23,23,25,25,27,27,28,28,29,29,32,32,35,35,36,36],"right_children":[2,4,6,-1,8,10,12,-1,14,16,18,-1,20,22,-1,-1,-1,24,26,28,-1,-1,-1,30,-1,32,-1,34,36,38,-1,-1,40,-1,-1,42,44,-1,-1,-1,-1,-1,-1,-1,-1],"split_conditions":[4.210993E-1,2.4E2,7.68E2,6.395699E-2,1.29E2,3.51E2,1.339E3,-4.1039267E-1,1.695E2,1.4520609E2,4.7425E3,4.5175624E-1,8.5415E3,4.3165E3,-3.673983E-1,3.5133088E-1,-9.4784535E-2,4.5565E3,5E-1,1.6285E3,-3.146573E-1,-5.1691607E-2,2.5398386E-1,4.2555E3,-5.091472E-1,5E-1,3.4282723E-1,1.26E2,3.21E2,5E-1,3.1965685E-1,-4.0804783E-1,6.403E3,1.1545386E-1,-2.6910004E-1,2.813E3,2.0225E3,3.5990162E-3,-3.1154212E-1,3.2792008E-1,-1.4397167E-1,-4.311142E-1,8.103003E-2,-1.3481248E-2,2.661795E-1],"split_indices":[4,3,1,0,2,3,1,0,2,2,0,0,0,0,0,0,0,0,5,1,0,0,0,0,0,13,0,2,3,19,0,0,0,0,0,0,0,0,0,0,0,0,0,0,0],"split_type":[0,0,0,0,0,0,0,0,0,0,0,0,0,0,0,0,0,0,0,0,0,0,0,0,0,0,0,0,0,0,0,0,0,0,0,0,0,0,0,0,0,0,0,0,0],"sum_hessian":[6.863784E1,7.883171E0,6.075467E1,1.2947031E0,6.588468E0,3.167895E1,2.907572E1,2.5516398E0,4.036828E0,3.906774E0,2.7772175E1,2.6147563E0,2.6460964E1,2.2970538E0,1.7397745E0,2.412439E0,1.4943349E0,1.2779521E1,1.4992654E1,2.4808126E1,1.6528373E0,1.0444837E0,1.2525702E0,1.0508205E1,2.2713158E0,1.2366181E1,2.6264722E0,3.3490837E0,2.1459044E1,8.921667E0,1.5865378E0,1.6240078E0,1.0742174E1,1.1239197E0,2.225164E0,2.748296E0,1.8710747E1,5.752494E0,3.1691737E0,3.8408215E0,6.9013524E0,1.0240129E0,1.7242831E0,3.1165633E0,1.5594184E1],"tree_param":{"num_deleted":"0","num_feature":"20","num_nodes":"45","size_leaf_vector":"0"}},{"base_weights":[2.092865E-2,-1.6578447E-2,5.9060645E-1,-4.1582483E-1,3.715841E-2,8.994524E-3,7.9734945E-1,-6.2972635E-1,1.1584509E-1,7.054542E-2,-6.584264E-1,-8.2961494E-1,-1.7279248E-1,1.953635E-1,-9.412271E-2,3.4153837E-1,2.5486818E-3,-3.569941E-1,1.5226267E-1,5.193428E-1,-5.051953E-2,4.9238107E-1,-1.673551E-1,-4.7274694E-1,2.5444168E-1,5.8644074E-1,-6.867855E-2,8.1107616E-1,4.6260316E-2,-2.925607E-1,5.2364486E-1,-3.014512E-1,8.921811E-1,-3.5120657E-1,4.0486696E-1,-5.8629775E-1,2.7438974E-1,-4.6274096E-2,8.9972067E-1,-2.5504538E-1,4.215391E-1],"categories":[],"categories_nodes":[],"categories_segments":[],"categories_sizes":[],"default_left":[1,1,1,1,1,0,0,1,0,1,0,0,0,1,1,1,1,1,1,1,1,1,1,1,0,1,1,0,0,0,0,0,0,0,0,0,0,0,0,0,0],"id":7,"left_children":[1,3,5,7,9,-1,-1,11,-1,13,-1,-1,-1,15,17,19,21,23,25,27,29,31,33,35,-1,37,39,-1,-1,-1,-1,-1,-1,-1,-1,-1,-1,-1,-1,-1,-1],"loss_changes":[1.401095E0,1.3470124E0,4.797665E-1,9.1960454E-1,1.3381494E0,0E0,0E0,3.55731E-1,0E0,1.1277915E0,0E0,0E0,0E0,8.7365377E-1,1.605403E0,1.2559979E0,1.2797666E0,9.6147287E-1,1.293339E0,1.6497767E0,1.0447867E0,1.5253831E0,1.3444971E0,1.038379E0,0E0,9.35637E-1,9.802157E-1,0E0,0E0,0E0,0E0,0E0,0E0,0E0,0E0,0E0,0E0,0E0,0E0,0E0,0E0],"parents":[2147483647,0,0,1,1,2,2,3,3,4,4,7,7,9,9,13,13,14,14,15,15,16,16,17,17,18,18,19,19,20,20,21,21,22,22,23,23,25,25,26,26],"right_children":[2,4,6,8,10,-1,-1,12,-1,14,-1,-1,-1,16,18,20,22,24,26,28,30,32,34,36,-1,38,40,-1,-1,-1,-1,-1,-1,-1,-1,-1,-1,-1,-1,-1,-1],"split_conditions":[5.401E3,4.210993E-1,2.643E3,1.59E2,4.589E3,4.497262E-3,3.9867473E-1,5E-1,5.7922546E-2,1.4520609E2,-3.292132E-1,-4.1480747E-1,-8.639624E-2,5E-1,1.775E2,5E-1,6.1E1,5E-1,1.89E2,4.317E3,4.6175E3,4.75E1,1.275E2,3.125E3,1.2722084E-1,6.854E3,3.22E2,4.0553808E-1,2.3130158E-2,-1.4628035E-1,2.6182243E-1,-1.507256E-1,4.4609055E-1,-1.7560329E-1,2.0243348E-1,-2.9314888E-1,1.3719487E-1,-2.3137048E-2,4.4986033E-1,-1.2752269E-1,2.1076955E-1],"split_indices":[1,4,0,2,1,0,0,17,0,2,0,0,0,7,2,17,2,11,2,0,0,2,2,1,0,0,2,0,0,0,0,0,0,0,0,0,0,0,0,0,0],"split_type":[0,0,0,0,0,0,0,0,0,0,0,0,0,0,0,0,0,0,0,0,0,0,0,0,0,0,0,0,0,0,0,0,0,0,0,0,0,0,0,0,0],"sum_hessian":[6.411473E1,6.106515E1,3.0495784E0,6.444745E0,5.4620407E1,1.0733954E0,1.976183E0,4.4642544E0,1.9804906E0,5.297621E1,1.6441963E0,2.5382626E0,1.9259918E0,3.0028366E1,2.2947845E1,1.6641188E1,1.3387178E1,1.0885284E1,1.206256E1,1.122556E1,5.415627E0,2.9588418E0,1.0428336E1,9.3433E0,1.5419849E0,3.5102267E0,8.552334E0,6.501725E0,4.7238355E0,4.1546693E0,1.2609582E0,1.073441E0,1.8854009E0,8.184838E0,2.243498E0,8.297507E0,1.0457926E0,1.4447114E0,2.0655153E0,6.54416E0,2.0081737E0],"tree_param":{"num_deleted":"0","num_feature":"20","num_nodes":"41","size_leaf_vector":"0"}},{"base_weights":[3.765458E-2,1.6999003E-2,6.4969736E-1,-3.4099817E-1,6.1383728E-2,2.1179977E-1,-5.025855E-1,8.7459356E-2,-5.2835095E-1,-7.365527E-1,-1.8607342E-1,1.1363728E-1,-4.936927E-1,3.7437218E-1,-6.532174E-1,8.124316E-2,6.1956555E-1,1.1835375E-1,-5.0680375E-1,8.4951214E-2,7.3180175E-1],"categories":[],"categories_nodes":[],"categories_segments":[],"categories_sizes":[],"default_left":[1,1,0,1,1,0,1,1,0,0,1,1,0,0,0,1,0,1,0,0,0],"id":8,"left_children":[1,3,-1,5,7,-1,9,11,-1,-1,13,15,-1,-1,-1,17,-1,19,-1,-1,-1],"loss_changes":[7.8096217E-1,1.0002074E0,0E0,7.273144E-1,9.024291E-1,0E0,2.831967E-1,8.8035566E-1,0E0,0E0,1.2263329E0,8.126688E-1,0E0,0E0,0E0,1.1650743E0,0E0,9.304853E-1,0E0,0E0,0E0],"parents":[2147483647,0,0,1,1,3,3,4,4,6,6,7,7,10,10,11,11,15,15,17,17],"right_children":[2,4,-1,6,8,-1,10,12,-1,-1,14,16,-1,-1,-1,18,-1,20,-1,-1,-1],"split_conditions":[5.35E2,4.210993E-1,3.2484868E-1,2.5415E3,4.2E2,1.05899885E-1,4.3165E3,1.8249E4,-2.6417547E-1,-3.6827636E-1,5.351E3,1.2688E4,-2.4684635E-1,1.8718609E-1,-3.266087E-1,9.9815E3,3.0978277E-1,9.1665E3,-2.5340188E-1,4.2475607E-2,3.6590087E-1],"split_indices":[2,4,0,0,3,0,0,0,0,0,0,0,0,0,0,0,0,0,0,0,0],"split_type":[0,0,0,0,0,0,0,0,0,0,0,0,0,0,0,0,0,0,0,0,0],"sum_hessian":[6.1648346E1,6.0629948E1,1.0184004E0,5.9506407E0,5.4679306E1,1.2756921E0,4.6749487E0,5.317962E1,1.4996858E0,1.9249351E0,2.7500136E0,5.1657192E1,1.5224298E0,1.3404418E0,1.4095719E0,4.963941E1,2.0177839E0,4.744403E1,2.195374E0,4.6073776E1,1.3702569E0],"tree_param":{"num_deleted":"0","num_feature":"20","num_nodes":"21","size_leaf_vector":"0"}},{"base_weights":[1.6967855E-2,-1.0880567E-2,4.486573E-1,1.3765097E-2,-4.8869544E-1,-6.199989E-2,6.623329E-1,-7.5347642E-3,5.0979215E-1,-3.6500806E-1,3.3794615E-2,-5.6843555E-1,-6.5209575E-2,-3.9685825E-3,4.181894E-1,2.2790754E-1,-2.8033057E-1,1.7037801E-1,-1.4023376E-1,6.080553E-1,-9.9864274E-2,2.670056E-2,7.1963006E-1,2.226051E-1,-2.1399456E-1],"categories":[],"categories_nodes":[],"categories_segments":[],"categories_sizes":[],"default_left":[1,1,1,1,0,0,0,1,0,1,1,0,1,1,1,0,0,1,1,0,0,0,0,0,0],"id":9,"left_children":[1,3,5,7,-1,-1,-1,9,-1,11,13,-1,15,17,19,-1,-1,21,23,-1,-1,-1,-1,-1,-1],"loss_changes":[7.3458993E-1,6.896956E-1,4.450143E-1,5.9681076E-1,0E0,0E0,0E0,8.21942E-1,0E0,3.1444758E-1,7.279682E-1,0E0,2.8203422E-1,1.1297967E0,5.018885E-1,0E0,0E0,1.6279733E0,7.616015E-1,0E0,0E0,0E0,0E0,0E0,0E0],"parents":[2147483647,0,0,1,1,2,2,3,3,7,7,9,9,10,10,12,12,13,13,14,14,17,17,18,18],"right_children":[2,4,6,8,-1,-1,-1,10,-1,12,14,-1,16,18,20,-1,-1,22,24,-1,-1,-1,-1,-1,-1],"split_conditions":[5.401E3,4.589E3,2.381E3,4.85E2,-2.4434772E-1,-3.0999945E-2,3.3116645E-1,4.210993E-1,2.5489607E-1,1.38E3,3.0065E3,-2.8421777E-1,5E-1,1.265E2,5E-1,1.1395377E-1,-1.4016528E-1,1.145E2,5E-1,3.0402765E-1,-4.9932137E-2,1.335028E-2,3.5981503E-1,1.1130255E-1,-1.0699728E-1],"split_indices":[1,1,0,2,0,0,0,4,0,1,1,0,9,2,7,0,0,2,15,0,0,0,0,0,0],"split_type":[0,0,0,0,0,0,0,0,0,0,0,0,0,0,0,0,0,0,0,0,0,0,0,0,0],"sum_hessian":[5.96984E1,5.699634E1,2.7020566E0,5.512423E1,1.872113E0,1.0064976E0,1.6955589E0,5.3798862E1,1.3253633E0,4.7637467E0,4.903512E1,2.3041875E0,2.4595594E0,4.554994E1,3.4851801E0,1.0158945E0,1.4436648E0,1.9872902E1,2.5677034E1,2.4233103E0,1.0618699E0,1.6583483E1,3.2894185E0,3.9970589E0,2.1679976E1],"tree_param":{"num_deleted":"0","num_feature":"20","num_nodes":"25","size_leaf_vector":"0"}},{"base_weights":[2.332397E-2,3.397026E-1,-3.5784657E-3,-5.7798468E-2,5.298504E-1,-5.050087E-1,4.821116E-2,1.02662764E-1,6.7885715E-1,-6.8460923E-1,1.2957782E-2,5.5686796E-1,1.7226301E-2,-9.9123454E-1,5.5943575E-2,-5.009194E-2,1.559244E-1,-3.5864517E-1,-1.650512E-4,5.902815E-1,6.840574E-2,-6.042107E-1,1.7220331E-3,1.8334381E-1,-1.3149762E-1,-1.9522194E-2,5.6831366E-1,-3.9802E-1,2.8446832E-1,-8.4488654E-1,-3.6082163E-2,-5.06819E-1,8.565517E-2],"categories":[],"categories_nodes":[],"categories_segments":[],"categories_sizes":[],"default_left":[1,1,1,0,1,1,1,0,0,1,0,0,1,0,0,1,1,1,1,0,1,0,0,1,1,1,0,0,0,0,0,0,0],"id":10,"left_children":[1,3,5,-1,7,9,11,-1,-1,13,-1,-1,15,-1,-1,17,19,21,23,-1,25,-1,-1,27,29,31,-1,-1,-1,-1,-1,-1,-1],"loss_changes":[5.0487417E-1,3.8192928E-1,1.466322E0,0E0,1.3669145E-1,5.005472E-1,7.980105E-1,0E0,0E0,9.50819E-1,0E0,0E0,4.6841413E-1,0E0,0E0,5.23232E-1,5.816417E-1,4.1965896E-1,7.528708E-1,0E0,6.594357E-1,0E0,0E0,8.793294E-1,1.2088354E0,7.3585165E-1,0E0,0E0,0E0,0E0,0E0,0E0,0E0],"parents":[2147483647,0,0,1,1,2,2,4,4,5,5,6,6,9,9,12,12,15,15,16,16,17,17,18,18,20,20,23,23,24,24,25,25],"right_children":[2,4,6,-1,8,10,12,-1,-1,14,-1,-1,16,-1,-1,18,20,22,24,-1,26,-1,-1,28,30,32,-1,-1,-1,-1,-1,-1,-1],"split_conditions":[6.05E1,2.4285E3,8.35E1,-2.8899234E-2,5E-1,5E-1,9.35E1,5.1331382E-2,3.3942857E-1,7.2E1,6.478891E-3,2.7843398E-1,5E-1,-4.9561727E-1,2.7971787E-2,2.476E3,2.4955E3,5E-1,4.56E3,2.9514074E-1,2.72E2,-3.0210534E-1,8.6101657E-4,2.4E2,4.6385E3,3.14E3,2.8415683E-1,-1.9901E-1,1.4223416E-1,-4.2244327E-1,-1.8041082E-2,-2.534095E-1,4.2827584E-2],"split_indices":[2,0,2,0,7,5,2,0,0,2,0,0,18,0,0,0,0,17,0,0,2,0,0,3,0,0,0,0,0,0,0,0,0],"split_type":[0,0,0,0,0,0,0,0,0,0,0,0,0,0,0,0,0,0,0,0,0,0,0,0,0,0,0,0,0,0,0,0,0],"sum_hessian":[5.8174896E1,3.6478744E0,5.452702E1,1.4055753E0,2.242299E0,4.2853036E0,5.024172E1,1.0166485E0,1.2256505E0,2.9430876E0,1.3422159E0,1.9102483E0,4.8331467E1,1.8419312E0,1.1011565E0,3.296869E1,1.5362779E1,3.730488E0,2.9238201E1,1.6129642E0,1.3749814E1,1.8162118E0,1.9142762E0,1.2031189E1,1.7207012E1,1.2510341E1,1.2394736E0,1.3476462E0,1.0683543E1,1.1032876E0,1.6103725E1,1.5429583E0,1.0967382E1],"tree_param":{"num_deleted":"0","num_feature":"20","num_nodes":"33","size_leaf_vector":"0"}},{"base_weights":[9.738317E-3,-1.74315E-1,6.0666718E-2,-4.1043773E-1,1.1580621E-1,3.961935E-1,2.0376245E-2,-5.7422495E-1,9.697815E-2,4.0173742E-1,-5.926665E-1,8.534374E-1,-4.4006917E-1,-4.261443E-2,3.58634E-1,-2.7479938E-1,-7.1620244E-1,-7.45008E-3,5.777418E-1,5.5056605E-2,-4.7106254E-1,6.6080195E-1,5.5773538E-2,-5.4032785E-1,6.5846056E-2,1.6789606E-1,7.204642E-1,-5.535614E-2,3.3075362E-1,-1.4958999E-1,-7.409533E-1,-1.8424179E-1,2.5347888E-1,-2.378829E-1,8.27362E-2,5.6480885E-1,-8.59868E-2,2.7059543E-1,-4.6693745E-1,-9.770063E-1,-2.080485E-1,1.0637678E-1,-4.2505664E-1,1.8517208E-1,-4.230615E-1,7.8974605E-2,8.5147303E-1,-3.712003E-1,2.1237704E-1],"categories":[],"categories_nodes":[],"categories_segments":[],"categories_sizes":[],"default_left":[1,1,1,1,1,1,1,1,0,1,0,0,0,1,1,1,0,0,1,1,1,0,1,0,0,0,0,1,1,1,1,0,0,1,1,1,1,0,0,0,0,0,0,0,0,0,0,0,0],"id":11,"left_children":[1,3,5,7,9,11,13,15,-1,17,-1,-1,-1,19,21,23,-1,-1,25,27,29,-1,31,-1,-1,-1,-1,33,35,37,39,-1,-1,41,43,45,47,-1,-1,-1,-1,-1,-1,-1,-1,-1,-1,-1,-1],"loss_changes":[5.529469E-1,9.243034E-1,6.1463386E-1,6.603923E-1,1.5594271E0,2.2431366E0,9.139963E-1,4.3170094E-2,0E0,3.819101E-1,0E0,0E0,0E0,1.5513124E0,5.7883394E-1,3.4657648E-1,0E0,0E0,9.4233274E-2,9.4916934E-1,4.8536015E-1,0E0,2.579692E-1,0E0,0E0,0E0,0E0,5.916381E-1,9.155042E-1,7.116123E-1,2.348181E-1,0E0,0E0,6.916084E-1,7.860997E-1,7.4381614E-1,4.2470405E-1,0E0,0E0,0E0,0E0,0E0,0E0,0E0,0E0,0E0,0E0,0E0,0E0],"parents":[2147483647,0,0,1,1,2,2,3,3,4,4,5,5,6,6,7,7,9,9,13,13,14,14,15,15,18,18,19,19,20,20,22,22,27,27,28,28,29,29,30,30,33,33,34,34,35,35,36,36],"right_children":[2,4,6,8,10,12,14,16,-1,18,-1,-1,-1,20,22,24,-1,-1,26,28,30,-1,32,-1,-1,-1,-1,34,36,38,40,-1,-1,42,44,46,48,-1,-1,-1,-1,-1,-1,-1,-1,-1,-1,-1,-1],"split_conditions":[5E-1,8.595E2,2.1E2,5E-1,2.9255E3,2.9285E3,3.0065E3,4.715E3,4.8489075E-2,1.5885E3,-2.9633325E-1,4.267187E-1,-2.2003458E-1,2.081E3,3.713E3,3.134E3,-3.5810122E-1,-3.72504E-3,5E-1,8.06E0,4.308E3,3.3040097E-1,5.7725E3,-2.7016392E-1,3.2923028E-2,8.394803E-2,3.602321E-1,4.7365E3,5E-1,2.55E3,5.6175E3,-9.212089E-2,1.2673944E-1,3.2435E3,1.79165E4,2.99E3,3.6215E3,1.3529772E-1,-2.3346873E-1,-4.8850316E-1,-1.0402425E-1,5.318839E-2,-2.1252832E-1,9.258604E-2,-2.1153075E-1,3.9487302E-2,4.2573652E-1,-1.8560015E-1,1.0618852E-1],"split_indices":[13,1,3,5,1,1,1,0,0,1,0,0,0,1,0,0,0,0,17,1,0,0,0,0,0,0,0,0,17,1,0,0,0,0,0,0,0,0,0,0,0,0,0,0,0,0,0,0,0],"split_type":[0,0,0,0,0,0,0,0,0,0,0,0,0,0,0,0,0,0,0,0,0,0,0,0,0,0,0,0,0,0,0,0,0,0,0,0,0,0,0,0,0,0,0,0,0,0,0,0,0],"sum_hessian":[5.6861996E1,1.1798807E1,4.506319E1,6.2761154E0,5.5226917E0,3.8841064E0,4.1179085E1,4.6450796E0,1.6310362E0,4.243157E0,1.2795352E0,2.4978292E0,1.3862772E0,3.5451324E1,5.7277603E0,2.4383013E0,2.206778E0,1.5642192E0,2.6789377E0,2.9579695E1,5.871628E0,2.275547E0,3.4522133E0,1.0408131E0,1.3974882E0,1.254077E0,1.4248607E0,2.1691692E1,7.888002E0,3.3890822E0,2.4825459E0,1.5900198E0,1.8621935E0,9.031484E0,1.2660209E1,4.8236046E0,3.0643973E0,1.5216523E0,1.8674299E0,1.1429223E0,1.3396235E0,3.3329737E0,5.69851E0,1.1055178E1,1.6050316E0,2.263297E0,2.5603075E0,1.4419149E0,1.6224824E0],"tree_param":{"num_deleted":"0","num_feature":"20","num_nodes":"49","size_leaf_vector":"0"}},{"base_weights":[4.991721E-3,6.817157E-2,-1.4297824E-1,1.3042626E-1,-2.8662747E-1,-4.4201624E-1,1.1042504E-1,4.021797E-2,8.932685E-1,-5.0858194E-1,4.1519853E-1,-5.7902837E-1,1.2879167E-1,6.205454E-1,-7.7312015E-2,-4.9978524E-2,4.6076736E-1,-1.349627E-1,-8.4492743E-1,-7.1321917E-1,-2.3113436E-1,2.8764066E-1,-7.3479944E-1,1.4211059E-1,-3.812587E-1,-1.541695E-1,6.419097E-1,-4.4311973E-1,1.5553525E-1,-8.14993E-1,-2.1550195E-1,-5.3423464E-1,1.7010742E-1,5.259168E-1,-2.7039954E-1,1.3198402E-2,6.8643713E-1,-2.0396535E-1,-8.99942E-1,2.03626E-1,8.472848E-1,-2.1261014E-1,8.783573E-1,1.5862018E-1,-4.989774E-1,-4.8578426E-1,1.6833496E-1],"categories":[],"categories_nodes":[],"categories_segments":[],"categories_sizes":[],"default_left":[1,1,1,1,1,1,1,1,0,1,0,1,0,0,1,1,1,1,0,1,1,1,0,1,1,0,1,0,0,0,0,0,0,1,0,1,0,1,0,0,0,0,0,0,0,0,0],"id":12,"left_children":[1,3,5,7,9,11,13,15,-1,17,-1,19,-1,-1,21,23,25,27,-1,29,31,33,-1,35,37,-1,39,-1,-1,-1,-1,-1,-1,41,-1,43,-1,45,-1,-1,-1,-1,-1,-1,-1,-1,-1],"loss_changes":[5.311791E-1,9.156825E-1,1.3379302E0,2.3392422E0,1.1844937E0,7.004876E-1,1.0064982E0,1.2335409E0,0E0,5.3899145E-1,0E0,1.4494729E-1,0E0,0E0,2.1802626E0,1.7837303E0,7.3762906E-1,3.958406E-1,0E0,4.265833E-2,4.9544853E-1,9.393785E-1,0E0,1.2492467E0,7.587391E-1,0E0,2.4356103E-1,0E0,0E0,0E0,0E0,0E0,0E0,1.3686787E0,0E0,1.2349608E0,0E0,1.0186867E0,0E0,0E0,0E0,0E0,0E0,0E0,0E0,0E0,0E0],"parents":[2147483647,0,0,1,1,2,2,3,3,4,4,5,5,6,6,7,7,9,9,11,11,14,14,15,15,16,16,17,17,19,19,20,20,21,21,23,23,24,24,26,26,33,33,35,35,37,37],"right_children":[2,4,6,8,10,12,14,16,-1,18,-1,20,-1,-1,22,24,26,28,-1,30,32,34,-1,36,38,-1,40,-1,-1,-1,-1,-1,-1,42,-1,44,-1,46,-1,-1,-1,-1,-1,-1,-1,-1,-1],"split_conditions":[1.69E2,6.0165E3,6.129E3,5.2675E3,1.2825E4,4.907E3,1.9E2,1.4720609E2,4.4663426E-1,1.4820609E2,2.0759927E-1,5E-1,6.439584E-2,3.102727E-1,5E-1,3.866E3,2.831E3,6.7825E3,-4.2246372E-1,5.763E3,1.755E2,5E-1,-3.6739972E-1,3.6005E3,1.37E2,-7.708475E-2,1.56E2,-2.2155987E-1,7.7767625E-2,-4.074965E-1,-1.07750975E-1,-2.6711732E-1,8.505371E-2,9.2615E3,-1.3519977E-1,3.361E3,3.4321856E-1,1.135E2,-4.49971E-1,1.01813E-1,4.236424E-1,-1.0630507E-1,4.3917865E-1,7.931009E-2,-2.494887E-1,-2.4289213E-1,8.416748E-2],"split_indices":[2,0,0,0,0,1,2,2,0,2,0,17,0,0,17,0,0,0,0,0,2,10,0,0,2,0,2,0,0,0,0,0,0,0,0,0,0,2,0,0,0,0,0,0,0,0,0],"split_type":[0,0,0,0,0,0,0,0,0,0,0,0,0,0,0,0,0,0,0,0,0,0,0,0,0,0,0,0,0,0,0,0,0,0,0,0,0,0,0,0,0,0,0,0,0,0,0],"sum_hessian":[5.4775772E1,3.8763794E1,1.601198E1,3.3515415E1,5.248377E0,7.0032334E0,9.008747E0,3.091263E1,2.6027858E0,4.1965504E0,1.0518264E0,5.6360097E0,1.3672236E0,1.8033301E0,7.205417E0,2.6179083E1,4.7335477E0,2.651961E0,1.5445893E0,3.3093946E0,2.326615E0,4.9952245E0,2.2101927E0,1.6932175E1,9.246907E0,1.1109684E0,3.6225793E0,1.0319257E0,1.6200355E0,2.2183263E0,1.0910683E0,1.1365817E0,1.1900333E0,3.5408788E0,1.4543458E0,1.4518115E1,2.4140599E0,7.9296694E0,1.3172374E0,1.7913042E0,1.8312751E0,1.272063E0,2.2688158E0,1.1845212E1,2.672903E0,4.3397818E0,3.589888E0],"tree_param":{"num_deleted":"0","num_feature":"20","num_nodes":"47","size_leaf_vector":"0"}},{"base_weights":[4.6466053E-3,-2.5204235E-1,3.552526E-2,-8.113195E-2,-4.7731957E-1,2.7674E-1,1.2886554E-2,-3.0423313E-1,2.412094E-1,-1.4810197E-1,5.250955E-1,-2.9942834E-1,4.869492E-2,-5.3919005E-1,6.615125E-2,7.5997315E-2,-4.466063E-1,2.7490166E-1,-2.0695422E-3,-6.8037236E-1,7.067666E-2,-1.2731164E-2,5.079606E-1,-4.4976166E-1,3.8160324E-2,2.7091324E-1,-2.3278955E-1,4.4085193E-1,-1.3656845E-2,6.8199885E-1,-6.8795537E-3,-1.3118644E-1,2.3985967E-1],"categories":[],"categories_nodes":[],"categories_segments":[],"categories_sizes":[],"default_left":[1,1,1,1,0,1,1,1,0,0,0,1,1,0,0,0,1,1,1,0,0,1,0,0,1,0,0,1,1,0,0,0,0],"id":13,"left_children":[1,3,5,7,-1,9,11,13,-1,-1,-1,15,17,-1,-1,-1,19,21,23,-1,-1,25,-1,-1,27,-1,-1,29,31,-1,-1,-1,-1],"loss_changes":[4.3404394E-1,1.8775809E-1,2.6263952E-1,4.005647E-1,0E0,5.139329E-1,5.247129E-1,3.081321E-1,0E0,0E0,0E0,3.0092275E-1,4.8037308E-1,0E0,0E0,0E0,4.854071E-1,5.2033496E-1,6.496464E-1,0E0,0E0,3.3812106E-1,0E0,0E0,6.9760644E-1,0E0,0E0,4.1590822E-1,9.353176E-1,0E0,0E0,0E0,0E0],"parents":[2147483647,0,0,1,1,2,2,3,3,5,5,6,6,7,7,11,11,12,12,16,16,17,17,18,18,21,21,24,24,27,27,28,28],"right_children":[2,4,6,8,-1,10,12,14,-1,-1,-1,16,18,-1,-1,-1,20,22,24,-1,-1,26,-1,-1,28,-1,-1,30,32,-1,-1,-1,-1],"split_conditions":[4.210993E-1,1.63E2,6.05E1,1.8055E3,-2.3865978E-1,4.65E1,8.35E1,1.29E2,1.206047E-1,-7.4050985E-2,2.6254776E-1,5E-1,1.115E2,-2.6959503E-1,3.3075623E-2,3.7998658E-2,7.2E1,9.95E1,1.145E2,-3.4018618E-1,3.533833E-2,9.35E1,2.539803E-1,-2.2488083E-1,1.265E2,1.3545662E-1,-1.1639477E-1,5E-1,2.2045E3,3.4099942E-1,-3.4397768E-3,-6.559322E-2,1.19929835E-1],"split_indices":[4,2,2,1,0,2,2,2,0,0,0,6,2,0,0,0,2,2,2,0,0,2,0,0,2,0,0,7,1,0,0,0,0],"split_type":[0,0,0,0,0,0,0,0,0,0,0,0,0,0,0,0,0,0,0,0,0,0,0,0,0,0,0,0,0,0,0,0,0],"sum_hessian":[5.2630947E1,4.8823614E0,4.7748585E1,3.5495653E0,1.3327959E0,3.1338027E0,4.461478E1,2.1308935E0,1.418672E0,1.3050416E0,1.8287612E0,3.831868E0,4.0782913E1,1.0249491E0,1.1059443E0,1.2153516E0,2.6165164E0,6.6656227E0,3.411729E1,1.5849698E0,1.0315467E0,3.4066432E0,3.2589798E0,1.9736809E0,3.214361E1,1.387337E0,2.0193062E0,2.80865E0,2.9334959E1,1.485391E0,1.3232591E0,2.0372744E1,8.962217E0],"tree_param":{"num_deleted":"0","num_feature":"20","num_nodes":"33","size_leaf_vector":"0"}},{"base_weights":[5.0987583E-3,-4.748553E-2,1.1344511E-1,3.12477E-2,-1.4682817E-1,3.1500593E-2,3.4237653E-1,-4.4701472E-2,6.233432E-1,2.5477296E-1,-2.45055E-1,1.3628818E-1,-3.648186E-1,5.7220006E-1,-6.2354606E-2,3.8651845E-1,-1.169685E-1,5.55778E-1,-2.2600168E-1,-5.697306E-1,-8.025046E-2,-3.4014758E-1,2.4921058E-1,1.5322685E-2,-5.578346E-1,-1.8026598E-1,1.12236015E-1,2.3796125E-1,-3.3362785E-1,2.943656E-2,3.92901E-1,-4.964459E-2,-7.709962E-1,-3.5172123E-1,3.8106415E-1,-2.575854E-1,5.8011043E-1,-4.4550443E-1,7.2882004E-2,2.7924913E-1,-4.5727572E-1,5.7506406E-1,9.517672E-2,-2.4982417E-1,1.7228355E-1,6.0230285E-1,-4.39558E-2,-1.9761403E-1,-6.865794E-1,4.955016E-1,-1.5173347E-1,-1.60673E-1,3.1022897E-1],"categories":[],"categories_nodes":[],"categories_segments":[],"categories_sizes":[],"default_left":[1,1,1,1,1,1,1,1,0,1,1,1,1,0,0,0,1,0,0,0,1,0,1,0,0,1,1,1,1,1,1,1,0,0,1,0,0,1,0,1,0,0,1,0,0,0,0,0,0,0,0,0,0],"id":14,"left_children":[1,3,5,7,9,11,13,15,-1,17,19,21,23,-1,-1,-1,25,-1,-1,-1,27,-1,29,-1,-1,31,33,35,37,39,41,43,-1,-1,45,-1,-1,47,-1,49,-1,-1,51,-1,-1,-1,-1,-1,-1,-1,-1,-1,-1],"loss_changes":[3.039257E-1,2.860322E-1,3.1594834E-1,9.676435E-1,6.9694614E-1,6.2810737E-1,4.5328784E-1,6.5150136E-1,0E0,6.5400416E-1,6.73079E-1,7.1653795E-1,2.4219185E-1,0E0,0E0,0E0,2.731176E-1,0E0,0E0,0E0,8.916728E-1,0E0,3.0644095E-1,0E0,0E0,1.0452619E0,6.813565E-1,1.005586E0,3.0647647E-1,7.431714E-1,2.711082E-1,6.0139877E-1,0E0,0E0,3.3286375E-1,0E0,0E0,1.5506971E-1,0E0,4.4481647E-1,0E0,0E0,2.4126081E-1,0E0,0E0,0E0,0E0,0E0,0E0,0E0,0E0,0E0,0E0],"parents":[2147483647,0,0,1,1,2,2,3,3,4,4,5,5,6,6,7,7,9,9,10,10,11,11,12,12,16,16,20,20,22,22,25,25,26,26,27,27,28,28,29,29,30,30,31,31,34,34,37,37,39,39,42,42],"right_children":[2,4,6,8,10,12,14,16,-1,18,20,22,24,-1,-1,-1,26,-1,-1,-1,28,-1,30,-1,-1,32,34,36,38,40,42,44,-1,-1,46,-1,-1,48,-1,50,-1,-1,52,-1,-1,-1,-1,-1,-1,-1,-1,-1,-1],"split_conditions":[5E-1,1.315E3,6.553E3,6.12E2,1.125E2,5.492E3,1.10415E4,3.51E2,3.116716E-1,2.9115E3,1.385E2,5E-1,1.965E2,2.8610003E-1,-3.1177303E-2,1.9325922E-1,9.1665E3,2.77889E-1,-1.1300084E-1,-2.848653E-1,1.7E2,-1.7007379E-1,9.45E1,7.6613426E-3,-2.789173E-1,7.2665E3,1.675E2,2.956E3,5.383E3,1.255E2,1.4520609E2,5E-1,-3.854981E-1,-1.7586061E-1,1.556E4,-1.287927E-1,2.9005522E-1,8.4995E3,3.6441002E-2,4.209E3,-2.2863786E-1,2.8753203E-1,3.802E3,-1.2491208E-1,8.614177E-2,3.0115142E-1,-2.19779E-2,-9.8807015E-2,-3.432897E-1,2.477508E-1,-7.586674E-2,-8.03365E-2,1.5511449E-1],"split_indices":[18,1,0,1,2,0,0,3,0,0,2,15,2,0,0,0,0,0,0,0,2,0,1,0,0,0,2,0,1,2,2,17,0,0,0,0,0,0,0,0,0,0,0,0,0,0,0,0,0,0,0,0,0],"split_type":[0,0,0,0,0,0,0,0,0,0,0,0,0,0,0,0,0,0,0,0,0,0,0,0,0,0,0,0,0,0,0,0,0,0,0,0,0,0,0,0,0,0,0,0,0,0,0,0,0,0,0,0,0],"sum_hessian":[5.1399883E1,3.4983086E1,1.6416796E1,1.98983E1,1.5084786E1,1.292719E1,3.4896057E0,1.8455484E1,1.4428157E0,2.6512814E0,1.2433505E1,1.0742868E1,2.184321E0,1.9618217E0,1.527784E0,2.024822E0,1.6430662E1,1.5345314E0,1.11675E0,3.359017E0,9.074488E0,1.672812E0,9.070057E0,1.0456157E0,1.1387053E0,1.3042375E1,3.388288E0,4.0495634E0,5.0249248E0,4.0620403E0,5.0080166E0,1.1568421E1,1.4739527E0,1.1298997E0,2.2583883E0,1.7549553E0,2.294608E0,3.865238E0,1.1596868E0,2.9659665E0,1.0960737E0,2.5290692E0,2.4789474E0,6.0161476E0,5.552274E0,1.2109349E0,1.0474534E0,2.8028593E0,1.0623786E0,1.8753016E0,1.090665E0,1.2475685E0,1.231379E0],"tree_param":{"num_deleted":"0","num_feature":"20","num_nodes":"53","size_leaf_vector":"0"}},{"base_weights":[7.625834E-3,-2.615496E-1,4.008741E-2,4.5389984E-2,-3.573849E-1,8.468454E-2,-4.2996295E-2,-5.948536E-1,-7.016791E-2,3.5653222E-2,5.1890993E-1,5.914663E-2,-6.4119256E-1,2.3218724E-1,-3.3635196E-1,1.1189292E-1,-4.732714E-1,-1.8217872E-1,3.0082384E-1,1.6162829E-1,-2.4404384E-1,-7.519784E-1,-1.0424495E-1,-3.4689227E-1,1.8013094E-1,5.201989E-1,6.126744E-2,2.9033107E-1,-1.8297452E-2,-5.779983E-1,2.6428765E-1,-1.3888301E-1,-6.466919E-1,-8.657219E-2,3.4134412E-1,6.812505E-1,1.7874488E-1,-3.797244E-1,2.8232592E-1,-1.9981289E-1,4.1484487E-1,-1.7026535E-1,3.2022488E-1,1.6645113E-1,-4.225986E-1,4.2175046E-1,1.4544791E-2],"categories":[],"categories_nodes":[],"categories_segments":[],"categories_sizes":[],"default_left":[1,1,1,0,1,1,1,0,1,1,0,1,0,0,0,1,1,1,1,1,1,0,0,1,1,1,1,1,1,0,0,1,0,0,0,0,0,0,1,0,0,0,0,0,0,0,0],"id":15,"left_children":[1,3,5,-1,7,9,11,-1,13,15,-1,17,-1,-1,-1,19,21,23,25,27,29,-1,-1,31,33,35,37,39,41,-1,-1,43,-1,-1,-1,-1,-1,-1,45,-1,-1,-1,-1,-1,-1,-1,-1],"loss_changes":[4.5422113E-1,1.8089297E-1,1.7477052E-1,0E0,2.569154E-1,6.285226E-1,1.064128E0,0E0,3.2884163E-1,1.154124E0,0E0,9.4487333E-1,0E0,0E0,0E0,4.907131E-1,3.2157797E-1,5.5535626E-1,3.886639E-1,5.371788E-1,7.509375E-1,0E0,0E0,2.8556836E-1,1.688331E-1,1.00590706E-1,5.9059846E-1,9.0369344E-1,5.956518E-1,0E0,0E0,4.885201E-1,0E0,0E0,0E0,0E0,0E0,0E0,1.3859609E-1,0E0,0E0,0E0,0E0,0E0,0E0,0E0,0E0],"parents":[2147483647,0,0,1,1,2,2,4,4,5,5,6,6,8,8,9,9,11,11,15,15,16,16,17,17,18,18,19,19,20,20,23,23,24,24,25,25,26,26,27,27,28,28,31,31,38,38],"right_children":[2,4,6,-1,8,10,12,-1,14,16,-1,18,-1,-1,-1,20,22,24,26,28,30,-1,-1,32,34,36,38,40,42,-1,-1,44,-1,-1,-1,-1,-1,-1,46,-1,-1,-1,-1,-1,-1,-1,-1],"split_conditions":[4.210993E-1,2.5415E3,5E-1,2.2694992E-2,4.3165E3,2.77E2,9.9815E3,-2.974268E-1,5.351E3,2.365E2,2.5945497E-1,1.355E2,-3.2059628E-1,1.1609362E-1,-1.6817598E-1,2.921E3,6.199E3,1.5635E3,1.69E2,5E-1,1.53E2,-3.759892E-1,-5.2122474E-2,2.7606E2,2.346E3,1.7415E3,1.755E2,5E-1,4.7365E3,-2.8899914E-1,1.3214383E-1,4.525E3,-3.2334596E-1,-4.3286096E-2,1.7067206E-1,3.4062526E-1,8.937244E-2,-1.898622E-1,2.0485E3,-9.9906445E-2,2.0742244E-1,-8.513267E-2,1.6011244E-1,8.322556E-2,-2.112993E-1,2.1087523E-1,7.2723953E-3],"split_indices":[4,0,17,0,0,2,0,0,0,2,0,2,0,0,0,1,0,1,2,7,2,0,0,1,0,1,2,13,0,0,0,0,0,0,0,0,0,0,1,0,0,0,0,0,0,0,0],"split_type":[0,0,0,0,0,0,0,0,0,0,0,0,0,0,0,0,0,0,0,0,0,0,0,0,0,0,0,0,0,0,0,0,0,0,0,0,0,0,0,0,0,0,0,0,0,0,0],"sum_hessian":[4.978318E1,4.5980844E0,4.5185097E1,1.2193019E0,3.3787827E0,2.9390038E1,1.579506E1,1.2632462E0,2.1155365E0,2.7380434E1,2.009602E0,1.4261084E1,1.5339768E0,1.0502687E0,1.0652679E0,2.4491598E1,2.8888373E0,7.258921E0,7.0021625E0,2.1967909E1,2.523688E0,1.0546087E0,1.8342286E0,5.019503E0,2.239418E0,3.0435274E0,3.9586353E0,1.2449228E1,9.518682E0,1.4403698E0,1.0833181E0,3.8272822E0,1.1922209E0,1.0181073E0,1.2213107E0,1.3918811E0,1.6516463E0,1.0821291E0,2.876506E0,2.3993866E0,1.0049842E1,6.91256E0,2.6061213E0,2.042483E0,1.7847991E0,1.5134974E0,1.3630089E0],"tree_param":{"num_deleted":"0","num_feature":"20","num_nodes":"47","size_leaf_vector":"0"}},{"base_weights":[-6.063703E-3,-2.1307169E-1,1.8567972E-2,-6.355766E-2,-4.0494782E-1,-1.2513985E-2,1.4563891E-1,1.22846134E-1,-2.4302708E-1,2.308968E-2,-5.3346807E-1,2.6048025E-1,-3.232925E-1,-3.8451934E-3,4.5858496E-1,4.3717378E-1,-2.3039351E-1,2.8399916E-2,-4.2650414E-1,-2.1886124E-1,6.2546927E-1,-1.727595E-2,6.732417E-1,8.050946E-1,1.8547484E-1,1.0417011E-1,-1.1863369E-1],"categories":[],"categories_nodes":[],"categories_segments":[],"categories_sizes":[],"default_left":[1,1,1,1,0,1,1,0,0,1,0,1,0,1,0,1,0,1,0,0,1,1,0,0,0,0,0],"id":16,"left_children":[1,3,5,7,-1,9,11,-1,-1,13,-1,15,-1,17,-1,19,-1,21,-1,-1,23,25,-1,-1,-1,-1,-1],"loss_changes":[2.5078058E-1,1.2423156E-1,1.7631367E-1,1.6782795E-1,0E0,6.8778604E-1,5.560541E-1,0E0,0E0,4.12858E-1,0E0,7.5919944E-1,0E0,4.754438E-1,0E0,8.6911535E-1,0E0,9.695988E-1,0E0,0E0,2.3516619E-1,3.982374E-1,0E0,0E0,0E0,0E0,0E0],"parents":[2147483647,0,0,1,1,2,2,3,3,5,5,6,6,9,9,11,11,13,13,15,15,17,17,20,20,21,21],"right_children":[2,4,6,8,-1,10,12,-1,-1,14,-1,16,-1,18,-1,20,-1,22,-1,-1,24,26,-1,-1,-1,-1,-1],"split_conditions":[4.210993E-1,5E-1,2.5905E3,1.415E2,-2.0247391E-1,2.4435E3,5E-1,6.1423067E-2,-1.2151354E-1,2.2045E3,-2.6673403E-1,2.275E2,-1.6164625E-1,2.081E3,2.2929248E-1,2.4E2,-1.1519676E-1,1.9155E3,-2.1325207E-1,-1.0943062E-1,5E-1,1.265E2,3.3662084E-1,4.025473E-1,9.273742E-2,5.2085053E-2,-5.9316844E-2],"split_indices":[4,19,1,2,0,1,10,0,0,1,0,2,0,1,0,3,0,1,0,0,7,2,0,0,0,0,0],"split_type":[0,0,0,0,0,0,0,0,0,0,0,0,0,0,0,0,0,0,0,0,0,0,0,0,0,0,0],"sum_hessian":[4.7406853E1,4.227558E0,4.3179295E1,3.1242883E0,1.1032698E0,3.5417564E1,7.761729E0,1.6872989E0,1.4369893E0,3.4046402E1,1.3711617E0,6.591897E0,1.169832E0,3.299676E1,1.0496407E0,4.9275765E0,1.6643201E0,3.1524529E1,1.472234E0,1.0627055E0,3.8648713E0,3.03481E1,1.176428E0,2.1552277E0,1.7096436E0,1.3793313E1,1.6554787E1],"tree_param":{"num_deleted":"0","num_feature":"20","num_nodes":"27","size_leaf_vector":"0"}},{"base_weights":[-1.0519434E-3,-2.6212648E-2,2.4565387E-1,-2.0876487E-3,-3.7512398E-1,4.9327025E-1,-3.5514493E-2,1.9717438E-2,-3.809537E-1,-2.3559402E-1,5.096376E-2,7.207749E-2,-5.1256174E-1,5.5934954E-1,2.0228393E-2,-1.8868035E-1,2.9602525E-1,-4.62999E-1,5.3794224E-2,6.3803655E-1,1.666533E-2],"categories":[],"categories_nodes":[],"categories_segments":[],"categories_sizes":[],"default_left":[1,1,1,1,0,0,0,1,0,1,1,1,0,0,1,0,0,0,1,0,0],"id":17,"left_children":[1,3,5,7,-1,-1,-1,9,-1,11,13,15,-1,-1,17,-1,-1,-1,19,-1,-1],"loss_changes":[2.997577E-1,3.677696E-1,3.2870495E-1,3.5413653E-1,0E0,0E0,0E0,3.3609873E-1,0E0,4.2958668E-1,5.671051E-1,2.3452038E-1,0E0,0E0,6.079319E-1,0E0,0E0,0E0,7.3788625E-1,0E0,0E0],"parents":[2147483647,0,0,1,1,2,2,3,3,7,7,9,9,10,10,11,11,14,14,18,18],"right_children":[2,4,6,8,-1,-1,-1,10,-1,12,14,16,-1,-1,18,-1,-1,-1,20,-1,-1],"split_conditions":[1.2688E4,9.9815E3,1.8249E4,4.2E2,-1.8756199E-1,2.4663512E-1,-1.7757246E-2,2.131E3,-1.9047685E-1,2.8065E3,2.305E3,1.8045E3,-2.5628087E-1,2.7967477E-1,2.476E3,-9.4340175E-2,1.4801262E-1,-2.314995E-1,2.5915E3,3.1901827E-1,8.332665E-3],"split_indices":[0,0,0,3,0,0,0,0,0,1,0,0,0,0,0,0,0,0,0,0,0],"split_type":[0,0,0,0,0,0,0,0,0,0,0,0,0,0,0,0,0,0,0,0,0],"sum_hessian":[4.6253845E1,4.278418E1,3.4696667E0,4.0958168E1,1.8260133E0,1.4437984E0,2.0258682E0,3.9625534E1,1.3326336E0,3.6076648E0,3.6017868E1,2.0595555E0,1.5481092E0,1.0728723E0,3.4944996E1,1.0243336E0,1.0352219E0,1.4387275E0,3.3506268E1,1.0350382E0,3.247123E1],"tree_param":{"num_deleted":"0","num_feature":"20","num_nodes":"21","size_leaf_vector":"0"}},{"base_weights":[9.5136126E-4,-6.993733E-2,8.397662E-2,-2.1988663E-1,1.0986323E-1,1.7644432E-1,-8.2647406E-2,-4.2418666E-2,-5.4833394E-1,2.5353917E-1,-4.7390122E-2,3.6433384E-1,-5.900152E-2,-7.694873E-1,1.1807074E-1,7.378454E-2,-3.874725E-1,-6.9562566E-1,-1.4142376E-1,-1.5437641E-2,4.290107E-1,-4.59623E-1,1.9634368E-1,1.6285798E-2,7.606708E-1,-4.3083593E-1,1.3531466E-1,3.385977E-1,-2.895978E-1,-2.3088898E-1,3.0583116E-1,-3.037009E-1,3.51715E-1,6.5881395E-1,8.757015E-2,3.4699422E-1,-1.3050698E-1,3.2204717E-1,-5.156782E-1,-7.445468E-2,5.0904846E-1,5.2134484E-1,-1.1892003E-1,-5.788421E-1,1.5409629E-1,-4.3634322E-1,1.09171845E-1,3.8898125E-2,4.8350155E-1,-1.0188455E-1,5.6158185E-1,3.1699475E-2,5.975648E-1,3.263477E-1,-2.9735473E-1,7.227955E-1,-2.5615383E-2,2.695308E-1,-1.9435997E-1,-4.873071E-1,2.4687905E-2],"categories":[],"categories_nodes":[],"categories_segments":[],"categories_sizes":[],"default_left":[1,1,1,1,1,1,1,1,1,1,1,1,1,0,1,1,0,0,0,1,1,0,1,1,0,0,1,1,1,1,1,0,0,0,0,1,0,1,0,1,0,1,0,0,0,0,0,1,0,0,0,0,0,0,1,0,0,0,0,0,0],"id":18,"left_children":[1,3,5,7,9,11,13,15,17,19,21,23,25,-1,27,29,-1,-1,-1,31,33,-1,35,37,-1,-1,39,41,43,45,47,-1,-1,-1,-1,49,-1,51,-1,53,-1,55,-1,-1,-1,-1,-1,57,-1,-1,-1,-1,-1,-1,59,-1,-1,-1,-1,-1,-1],"loss_changes":[2.798205E-1,7.1580374E-1,3.5188216E-1,8.115041E-1,2.9064906E-1,6.584322E-1,1.2618655E0,4.4484338E-1,1.9768715E-1,3.182188E-1,7.664959E-1,1.1114562E0,5.8220166E-1,0E0,7.6694405E-1,6.790463E-1,0E0,0E0,0E0,4.848384E-1,2.585312E-1,0E0,2.8805894E-1,1.0378457E0,0E0,0E0,4.7090986E-1,5.042387E-1,4.935668E-1,3.474049E-1,2.3328468E-1,0E0,0E0,0E0,0E0,4.0862298E-1,0E0,3.0256248E-1,0E0,4.9102753E-1,0E0,4.554392E-1,0E0,0E0,0E0,0E0,0E0,2.2516204E-1,0E0,0E0,0E0,0E0,0E0,0E0,2.1739998E-1,0E0,0E0,0E0,0E0,0E0,0E0],"parents":[2147483647,0,0,1,1,2,2,3,3,4,4,5,5,6,6,7,7,8,8,9,9,10,10,11,11,12,12,14,14,15,15,19,19,20,20,22,22,23,23,26,26,27,27,28,28,29,29,30,30,35,35,37,37,39,39,41,41,47,47,54,54],"right_children":[2,4,6,8,10,12,14,16,18,20,22,24,26,-1,28,30,-1,-1,-1,32,34,-1,36,38,-1,-1,40,42,44,46,48,-1,-1,-1,-1,50,-1,52,-1,54,-1,56,-1,-1,-1,-1,-1,58,-1,-1,-1,-1,-1,-1,60,-1,-1,-1,-1,-1,-1],"split_conditions":[4.6205E3,1.611E3,1.93E2,1.245E2,2.55E3,6.0165E3,6.0325E3,4.228E3,5E-1,1.9335E3,5E-1,5.258E3,6.4115E3,-3.8474366E-1,5E-1,6.85E1,-1.9373626E-1,-3.4781283E-1,-7.071188E-2,2.6335E3,3.0255E3,-2.298115E-1,5E-1,4.924E3,3.803354E-1,-2.1541797E-1,1.645E2,1.79165E4,2.515E2,5E-1,3.405E3,-1.5185045E-1,1.758575E-1,3.2940698E-1,4.3785077E-2,1.345E2,-6.525349E-2,4.7565E3,-2.578391E-1,7.225E3,2.5452423E-1,5E-1,-5.9460014E-2,-2.8942105E-1,7.7048145E-2,-2.1817161E-1,5.4585923E-2,9.45E1,2.4175078E-1,-5.0942276E-2,2.8079093E-1,1.5849737E-2,2.987824E-1,1.6317385E-1,1.05E4,3.6139774E-1,-1.28076915E-2,1.347654E-1,-9.717999E-2,-2.4365355E-1,1.2343952E-2],"split_indices":[0,1,2,2,1,0,0,0,17,1,9,0,0,0,7,2,0,0,0,0,0,0,19,0,0,0,2,0,2,19,0,0,0,0,0,2,0,0,0,0,0,9,0,0,0,0,0,2,0,0,0,0,0,0,0,0,0,0,0,0,0],"split_type":[0,0,0,0,0,0,0,0,0,0,0,0,0,0,0,0,0,0,0,0,0,0,0,0,0,0,0,0,0,0,0,0,0,0,0,0,0,0,0,0,0,0,0,0,0,0,0,0,0,0,0,0,0,0,0,0,0,0,0,0,0],"sum_hessian":[4.5545746E1,2.4653614E1,2.089213E1,1.3321151E1,1.1332463E1,1.3397999E1,7.494132E0,9.381338E0,3.9398131E0,5.60192E0,5.7305427E0,7.147088E0,6.2509108E0,1.053947E0,6.440185E0,7.6060324E0,1.7753055E0,2.371761E0,1.5680519E0,2.5717528E0,3.0301673E0,1.8001488E0,3.9303937E0,4.3596764E0,2.7874115E0,1.727691E0,4.5232196E0,4.28932E0,2.1508648E0,3.2905636E0,4.315469E0,1.5374628E0,1.03429E0,1.2555909E0,1.7745765E0,2.6481779E0,1.2822157E0,3.019018E0,1.3406587E0,3.410023E0,1.1131965E0,2.9653554E0,1.3239647E0,1.117663E0,1.0332019E0,1.8747592E0,1.4158044E0,2.2116327E0,2.1038358E0,1.026381E0,1.621797E0,2.0128636E0,1.0061542E0,1.0528204E0,2.3572028E0,1.9322225E0,1.0331329E0,1.0338825E0,1.1777503E0,1.1598849E0,1.1973177E0],"tree_param":{"num_deleted":"0","num_feature":"20","num_nodes":"61","size_leaf_vector":"0"}},{"base_weights":[5.913589E-3,-2.4688685E-1,3.6473658E-2,-3.6325145E-1,1.3088542E-2,8.50979E-2,-5.9259616E-2,-4.8202226E-1,-4.3864686E-2,4.134334E-2,4.522877E-1,4.8046805E-2,-3.843299E-1,8.613729E-2,-3.6032408E-1,-1.1068782E-1,2.830585E-1,-9.42303E-2,-5.1609737E-1,2.0056729E-1,-6.933824E-2,-1.947443E-1,2.0997319E-1,7.0178285E-2,5.444461E-1,3.1622165E-1,-2.0442815E-1,2.2454342E-2,-4.531429E-1,-3.4201896E-1,-1.5609493E-2,3.8386768E-1,-2.1370046E-1,4.4628254E-1,-2.3910716E-1,-4.259232E-1,9.999321E-2,-8.0662936E-2,4.121523E-1,-2.1029722E-2,-4.7448662E-1,4.173405E-1,-2.997639E-1],"categories":[],"categories_nodes":[],"categories_segments":[],"categories_sizes":[],"default_left":[1,1,1,1,0,1,1,0,0,1,0,1,1,1,0,1,1,0,0,1,1,1,0,1,0,1,1,1,0,1,1,0,0,0,0,0,0,0,0,0,0,0,0],"id":19,"left_children":[1,3,5,7,-1,9,11,-1,-1,13,-1,15,17,19,-1,21,23,-1,-1,25,27,29,-1,31,-1,33,35,37,-1,39,41,-1,-1,-1,-1,-1,-1,-1,-1,-1,-1,-1,-1],"loss_changes":[3.5119265E-1,1.5315926E-1,1.9304305E-1,1.08725905E-1,0E0,4.1820478E-1,5.1355344E-1,0E0,0E0,4.8802495E-1,0E0,4.6255636E-1,9.026307E-2,4.3480548E-1,0E0,2.4623355E-1,2.3674366E-1,0E0,0E0,7.149966E-1,3.8971806E-1,1.6759285E-1,0E0,4.2676988E-1,0E0,9.1514575E-1,2.9150814E-1,4.2089316E-1,0E0,1.4095032E-1,6.1786264E-1,0E0,0E0,0E0,0E0,0E0,0E0,0E0,0E0,0E0,0E0,0E0,0E0],"parents":[2147483647,0,0,1,1,2,2,3,3,5,5,6,6,9,9,11,11,12,12,13,13,15,15,16,16,19,19,20,20,21,21,23,23,25,25,26,26,27,27,29,29,30,30],"right_children":[2,4,6,8,-1,10,12,-1,-1,14,-1,16,18,20,-1,22,24,-1,-1,26,28,30,-1,32,-1,34,36,38,-1,40,42,-1,-1,-1,-1,-1,-1,-1,-1,-1,-1,-1,-1],"split_conditions":[4.210993E-1,4.836E3,5E-1,2.3795E3,6.544271E-3,2.77E2,7.2665E3,-2.4101113E-1,-2.1932343E-2,2.54E2,2.2614385E-1,1.385E2,5E-1,5E-1,-1.8016204E-1,4.7885E3,5E-1,-4.711515E-2,-2.5804868E-1,2.4255E3,1.625E2,1.065E2,1.0498659E-1,1.69E2,2.7222306E-1,5E-1,3.149E3,1.4720609E2,-2.2657146E-1,2.9085E3,1.32E3,1.9193384E-1,-1.0685023E-1,2.2314127E-1,-1.1955358E-1,-2.129616E-1,4.9996603E-2,-4.0331468E-2,2.0607615E-1,-1.0514861E-2,-2.3724331E-1,2.0867024E-1,-1.4988194E-1],"split_indices":[4,0,17,1,0,2,0,0,0,2,0,2,7,7,0,0,7,0,0,1,2,2,0,2,0,12,0,2,0,0,1,0,0,0,0,0,0,0,0,0,0,0,0],"split_type":[0,0,0,0,0,0,0,0,0,0,0,0,0,0,0,0,0,0,0,0,0,0,0,0,0,0,0,0,0,0,0,0,0,0,0,0,0,0,0,0,0,0,0],"sum_hessian":[4.329272E1,3.9056315E0,3.938709E1,2.4235852E0,1.4820464E0,2.6193928E1,1.3193161E1,1.3954467E0,1.0281385E0,2.4399109E1,1.7948186E0,1.0559607E1,2.6335542E0,2.2657856E1,1.7412534E0,6.61836E0,3.9412467E0,1.3582824E0,1.2752719E0,1.2884695E1,9.773161E0,5.554904E0,1.0634563E0,2.871287E0,1.0699598E0,1.0193064E1,2.6916316E0,8.646676E0,1.1264853E0,2.5495353E0,3.0053685E0,1.1966977E0,1.6745894E0,8.417909E0,1.7751545E0,1.3269948E0,1.3646368E0,7.464515E0,1.1821604E0,1.0832967E0,1.4662386E0,1.0051572E0,2.0002112E0],"tree_param":{"num_deleted":"0","num_feature":"20","num_nodes":"43","size_leaf_vector":"0"}},{"base_weights":[-2.1377674E-3,-2.3356523E-2,2.9977238E-1,2.2208622E-1,-4.7787495E-2,4.2807764E-1,-1.299109E-1,-3.7899056E-1,-1.2083788E-2,-5.752435E-1,-4.8944935E-2,2.505737E-1,-4.4372648E-2,-3.278633E-2,4.834265E-1,-8.782076E-2,2.5891975E-1,-3.9964437E-2,-3.7864533E-1,4.894604E-1,-1.9015455E-1,-2.4709915E-1,4.171737E-2,-1.575758E-2,-5.714685E-1],"categories":[],"categories_nodes":[],"categories_segments":[],"categories_sizes":[],"default_left":[1,1,0,1,1,0,0,1,1,0,0,1,1,0,0,1,1,1,1,0,0,0,0,0,0],"id":20,"left_children":[1,3,-1,5,7,-1,-1,9,11,-1,-1,13,15,-1,-1,17,19,21,23,-1,-1,-1,-1,-1,-1],"loss_changes":[2.8007916E-1,2.5500166E-1,0E0,3.3597273E-1,4.4346777E-1,0E0,0E0,2.0852786E-1,3.0994523E-1,0E0,0E0,2.8028718E-1,4.47415E-1,0E0,0E0,3.875919E-1,5.373732E-1,4.4961736E-1,2.6883793E-1,0E0,0E0,0E0,0E0,0E0,0E0],"parents":[2147483647,0,0,1,1,3,3,4,4,7,7,8,8,11,11,12,12,15,15,16,16,17,17,18,18],"right_children":[2,4,-1,6,8,-1,-1,10,12,-1,-1,14,16,-1,-1,18,20,22,24,-1,-1,-1,-1,-1,-1],"split_conditions":[5.401E3,2.1E2,1.4988619E-1,1.4520609E2,4.210993E-1,2.1403882E-1,-6.495545E-2,4.3165E3,2.372E3,-2.8762174E-1,-2.4472468E-2,1.921E3,2.5905E3,-1.6393164E-2,2.4171326E-1,2.081E3,4.5E3,9.95E1,4.308E3,2.447302E-1,-9.5077276E-2,-1.2354957E-1,2.0858685E-2,-7.87879E-3,-2.8573424E-1],"split_indices":[1,3,0,2,4,0,0,0,0,0,0,0,1,0,0,1,1,2,0,0,0,0,0,0,0],"split_type":[0,0,0,0,0,0,0,0,0,0,0,0,0,0,0,0,0,0,0,0,0,0,0,0,0],"sum_hessian":[4.162735E1,3.975588E1,1.8714728E0,2.8665981E0,3.688928E1,1.6719944E0,1.1946036E0,2.6540723E0,3.4235207E1,1.1984968E0,1.4555755E0,3.0077708E0,3.1227436E1,1.7443084E0,1.2634623E0,2.793592E1,3.2915149E0,2.4965214E1,2.9707065E0,2.115534E0,1.1759807E0,6.487809E0,1.8477406E1,1.40613E0,1.5645765E0],"tree_param":{"num_deleted":"0","num_feature":"20","num_nodes":"25","size_leaf_vector":"0"}},{"base_weights":[-1.3407253E-3,2.4054751E-1,-2.2854084E-2,-1.0154887E-1,4.4464448E-1,-2.1101655E-1,4.318896E-3,8.622411E-2,-4.874649E-1,-2.00555E-2,3.1399846E-1,-1.6206516E-1,3.175238E-1,1.1468028E-1,-9.527555E-2,2.2304807E-2,5.669868E-1,-3.3783174E-1,1.1922207E-3,1.9463895E-1,-1.854107E-1,-5.3386605E-1,-8.582096E-2,-7.422676E-2,3.5211837E-1,4.46498E-1,-1.0212276E-1,-3.5261315E-1,6.2570965E-5,-1.3290885E-1,-7.0986736E-1,2.0422332E-1,-2.6147813E-1,-4.150387E-1,8.160546E-2,4.5585218E-1,8.9701936E-2],"categories":[],"categories_nodes":[],"categories_segments":[],"categories_sizes":[],"default_left":[1,1,1,0,0,1,1,1,0,1,0,0,0,1,1,1,0,1,1,1,1,1,1,1,1,0,0,0,0,0,0,0,0,0,0,0,0],"id":21,"left_children":[1,3,5,-1,-1,7,9,11,-1,13,-1,-1,-1,15,17,19,-1,21,23,25,27,29,31,33,35,-1,-1,-1,-1,-1,-1,-1,-1,-1,-1,-1,-1],"loss_changes":[2.2206911E-1,2.8854162E-1,2.0098995E-1,0E0,0E0,4.4944403E-1,2.7179798E-1,2.3746642E-1,0E0,3.5092223E-1,0E0,0E0,0E0,5.084856E-1,5.169239E-1,4.4410667E-1,0E0,2.646674E-1,4.7050574E-1,5.4768336E-1,1.7618999E-1,1.4159465E-1,2.5420427E-1,8.116953E-1,4.469815E-2,0E0,0E0,0E0,0E0,0E0,0E0,0E0,0E0,0E0,0E0,0E0,0E0],"parents":[2147483647,0,0,1,1,2,2,5,5,6,6,7,7,9,9,13,13,14,14,15,15,17,17,18,18,19,19,20,20,21,21,22,22,23,23,24,24],"right_children":[2,4,6,-1,-1,8,10,12,-1,14,-1,-1,-1,16,18,20,-1,22,24,26,28,30,32,34,36,-1,-1,-1,-1,-1,-1,-1,-1,-1,-1,-1,-1],"split_conditions":[6.05E1,4.65E1,8.75E1,-5.0774436E-2,2.2232224E-1,3.505E3,5.401E3,7.05E1,-2.4373245E-1,1.325E2,1.5699923E-1,-8.103258E-2,1.587619E-1,1.295E2,3.756E3,5E-1,2.834934E-1,1.9335E3,5E-1,4.317E3,3.4795E3,1.5735E3,3.0255E3,1.56E2,1.505E2,2.23249E-1,-5.106138E-2,-1.7630658E-1,3.1285483E-5,-6.6454425E-2,-3.5493368E-1,1.0211166E-1,-1.3073906E-1,-2.0751935E-1,4.080273E-2,2.2792609E-1,4.4850968E-2],"split_indices":[2,2,2,0,0,0,1,2,0,2,0,0,0,2,0,7,0,1,5,0,0,1,0,2,2,0,0,0,0,0,0,0,0,0,0,0,0],"split_type":[0,0,0,0,0,0,0,0,0,0,0,0,0,0,0,0,0,0,0,0,0,0,0,0,0,0,0,0,0,0,0,0,0,0,0,0,0],"sum_hessian":[4.061775E1,2.4859002E0,3.8131847E1,1.116661E0,1.3692392E0,3.9580684E0,3.417378E1,2.2388885E0,1.7191799E0,3.254727E1,1.6265073E0,1.2241498E0,1.0147387E0,1.1472638E1,2.1074635E1,1.0398288E1,1.0743499E0,5.2847567E0,1.5789878E1,5.7175746E0,4.6807137E0,2.3434258E0,2.941331E0,1.3645706E1,2.1441715E0,2.8198366E0,2.8977377E0,1.9876825E0,2.6930308E0,1.2502741E0,1.0931517E0,1.0480958E0,1.8932351E0,3.7597024E0,9.886004E0,1.0084115E0,1.1357601E0],"tree_param":{"num_deleted":"0","num_feature":"20","num_nodes":"37","size_leaf_vector":"0"}},{"base_weights":[3.5730128E-3,-4.8290517E-2,1.0889242E-1,-2.4573544E-1,-8.384067E-3,5.3080484E-2,2.7343124E-1,2.2915518E-3,-3.9449233E-1,2.5585222E-1,-7.423475E-2,1.5828335E-1,-2.418468E-1,-1.3261014E-1,4.1516623E-1,-3.9562714E-1,-1.8128177E-2,1.573751E-2,3.7248504E-1,2.3573832E-1,-6.339717E-1,1.0953747E-1,5.561376E-1,1.5768807E-1,-8.756467E-2,2.1578927E-1,-4.5546114E-1,3.757701E-2,6.08345E-1,-6.1113212E-2,3.3651903E-1,3.3806664E-1,-1.4918213E-1,1.2272089E-2,2.9681256E-1,-4.2466924E-1,3.2514432E-1,5.320625E-1,2.9308551E-3,-4.0333253E-1,-2.9789453E-2,5.3029764E-1,-1.5574884E-1],"categories":[],"categories_nodes":[],"categories_segments":[],"categories_sizes":[],"default_left":[1,1,1,1,1,1,0,0,0,1,1,1,1,0,1,0,1,1,1,0,0,0,0,1,1,1,0,0,0,1,1,0,1,0,1,0,0,0,0,0,0,0,0],"id":22,"left_children":[1,3,5,7,9,11,-1,-1,-1,13,15,17,19,-1,21,-1,23,25,27,-1,-1,-1,-1,29,31,33,-1,-1,-1,35,37,-1,39,-1,41,-1,-1,-1,-1,-1,-1,-1,-1],"loss_changes":[2.2658916E-1,2.173242E-1,1.11086234E-1,1.7232129E-1,4.4002518E-1,3.9365873E-1,0E0,0E0,0E0,3.6771604E-1,3.5608655E-1,2.7036747E-1,7.874951E-1,0E0,1.0387474E-1,0E0,2.3598121E-1,7.0874256E-1,2.5919488E-1,0E0,0E0,0E0,0E0,2.3614591E-1,4.094548E-1,8.250801E-2,0E0,0E0,0E0,6.048796E-1,2.062262E-1,0E0,3.71894E-1,0E0,4.728936E-1,0E0,0E0,0E0,0E0,0E0,0E0,0E0,0E0],"parents":[2147483647,0,0,1,1,2,2,3,3,4,4,5,5,9,9,10,10,11,11,12,12,14,14,16,16,17,17,18,18,23,23,24,24,25,25,29,29,30,30,32,32,34,34],"right_children":[2,4,6,8,10,12,-1,-1,-1,14,16,18,20,-1,22,-1,24,26,28,-1,-1,-1,-1,30,32,34,-1,-1,-1,36,38,-1,40,-1,42,-1,-1,-1,-1,-1,-1,-1,-1],"split_conditions":[5E-1,2.476E3,2.06E2,1.125E2,3.2435E3,1.59E2,1.3671562E-1,1.1457759E-3,-1.9724616E-1,5E-1,3.6005E3,4.6855E3,5.909E3,-6.630507E-2,8.2E1,-1.9781357E-1,4.56E3,4.209E3,5E-1,1.1786916E-1,-3.1698585E-1,5.4768734E-2,2.780688E-1,5E-1,3.51E2,2.61E3,-2.2773057E-1,1.8788505E-2,3.041725E-1,3.999E3,4.0185E3,1.6903332E-1,5.283E3,6.1360444E-3,1.205E2,-2.1233462E-1,1.6257216E-1,2.6603124E-1,1.4654276E-3,-2.0166627E-1,-1.4894727E-2,2.6514882E-1,-7.787442E-2],"split_indices":[18,0,2,2,0,2,0,0,0,9,0,0,0,0,2,0,0,0,9,0,0,0,0,17,3,0,0,0,0,0,0,0,0,0,2,0,0,0,0,0,0,0,0],"split_type":[0,0,0,0,0,0,0,0,0,0,0,0,0,0,0,0,0,0,0,0,0,0,0,0,0,0,0,0,0,0,0,0,0,0,0,0,0,0,0,0,0,0,0],"sum_hessian":[3.9520157E1,2.6843044E1,1.26771145E1,3.6459937E0,2.319705E1,1.0453773E1,2.2233417E0,1.7360383E0,1.9099555E0,4.0520835E0,1.9144966E1,8.046748E0,2.4070241E0,1.2272483E0,2.8248353E0,1.9460659E0,1.71989E1,5.476047E0,2.5707011E0,1.265066E0,1.141958E0,1.4525963E0,1.3722391E0,4.509551E0,1.2689349E1,4.224527E0,1.2515203E0,1.5413661E0,1.0293351E0,2.3241704E0,2.1853807E0,1.0373272E0,1.1652022E1,1.5308208E0,2.6937063E0,1.1460403E0,1.17813E0,1.002667E0,1.1827137E0,2.9641194E0,8.687902E0,1.6636355E0,1.0300707E0],"tree_param":{"num_deleted":"0","num_feature":"20","num_nodes":"43","size_leaf_vector":"0"}},{"base_weights":[1.1757275E-2,-2.1201769E-1,3.8518056E-2,-3.379531E-1,-2.490565E-2,5.7892397E-2,-2.316431E-1,8.169248E-2,-3.5677728E-1,5.536731E-2,4.5208016E-1,9.5012024E-2,-1.523365E-1,4.831928E-2,4.5245644E-1,3.7112895E-1,-5.3890365E-1,8.992304E-2,-4.0363652E-1,-7.329452E-1,-8.119725E-2],"categories":[],"categories_nodes":[],"categories_segments":[],"categories_sizes":[],"default_left":[1,1,1,0,0,1,0,1,0,1,0,1,1,1,0,0,1,0,0,0,0],"id":23,"left_children":[1,3,5,-1,-1,7,-1,9,-1,11,-1,13,15,17,-1,-1,19,-1,-1,-1,-1],"loss_changes":[2.4224724E-1,9.359202E-2,2.0058545E-1,0E0,0E0,3.6634818E-1,0E0,2.9796824E-1,0E0,2.7853048E-1,0E0,4.3784508E-1,1.3177867E0,5.1541746E-1,0E0,0E0,2.5890732E-1,0E0,0E0,0E0,0E0],"parents":[2147483647,0,0,1,1,2,2,5,5,7,7,9,9,11,11,12,12,13,13,16,16],"right_children":[2,4,6,-1,-1,8,-1,10,-1,12,-1,14,16,18,-1,-1,20,-1,-1,-1,-1],"split_conditions":[4.210993E-1,4.3165E3,1.8249E4,-1.6897655E-1,-1.2452825E-2,4.2E2,-1.1582155E-1,1.2688E4,-1.7838864E-1,7.2665E3,2.2604008E-1,6.233E3,5E-1,5.9775E3,2.2622822E-1,1.8556447E-1,8.9165E3,4.496152E-2,-2.0181826E-1,-3.664726E-1,-4.0598623E-2],"split_indices":[4,0,0,0,0,3,0,0,0,0,0,0,9,0,0,0,0,0,0,0,0],"split_type":[0,0,0,0,0,0,0,0,0,0,0,0,0,0,0,0,0,0,0,0,0],"sum_hessian":[3.8089073E1,3.3290122E0,3.476006E1,1.5079412E0,1.8210709E0,3.3167217E1,1.5928423E0,3.2126312E1,1.040905E0,3.1067675E1,1.0586387E0,2.6543785E1,4.5238886E0,2.4481024E1,2.062761E0,1.9386394E0,2.5852494E0,2.3150951E1,1.3300724E0,1.3932478E0,1.1920016E0],"tree_param":{"num_deleted":"0","num_feature":"20","num_nodes":"21","size_leaf_vector":"0"}},{"base_weights":[-3.4037875E-3,-3.4021255E-2,1.10090524E-1,1.5434405E-1,-5.722527E-2,-2.7602923E-1,2.243113E-1,4.550559E-1,-2.743456E-1,-4.3740016E-3,-3.0259812E-1,2.8514521E-2,3.6886483E-1,-5.8242347E-2,2.2991277E-1,9.3284756E-2,-4.4139957E-1,2.5090817E-1,-3.2126626E-1,-6.533229E-2,5.9001917E-1,1.05454E-2,-4.0114993E-1,3.963674E-1,-1.5376447E-1,-9.015037E-2,-6.067979E-1,2.7383802E-2,3.516968E-1,-6.930715E-2,4.256899E-1,-1.17361374E-1,-5.229547E-1,-1.628549E-2,-4.0583423E-1],"categories":[],"categories_nodes":[],"categories_segments":[],"categories_sizes":[],"default_left":[1,1,1,1,1,0,1,0,0,1,1,1,1,1,1,0,1,1,0,0,0,1,1,0,0,0,0,0,0,1,0,0,0,0,0],"id":24,"left_children":[1,3,5,7,9,-1,11,-1,-1,13,15,17,19,21,23,-1,25,27,-1,-1,-1,29,31,-1,-1,-1,-1,-1,-1,33,-1,-1,-1,-1,-1],"loss_changes":[1.3618381E-1,1.433639E-1,4.2944252E-1,5.948858E-1,3.635148E-1,0E0,1.8711323E-1,0E0,0E0,3.1833148E-1,3.1433287E-1,3.9561155E-1,4.1623205E-1,4.864374E-1,3.6232746E-1,0E0,1.6926217E-1,5.8788702E-2,0E0,0E0,0E0,6.2626654E-1,5.758077E-2,0E0,0E0,0E0,0E0,0E0,0E0,2.7812716E-1,0E0,0E0,0E0,0E0,0E0],"parents":[2147483647,0,0,1,1,2,2,3,3,4,4,6,6,9,9,10,10,11,11,12,12,13,13,14,14,16,16,17,17,21,21,22,22,29,29],"right_children":[2,4,6,8,10,-1,12,-1,-1,14,16,18,20,22,24,-1,26,28,-1,-1,-1,30,32,-1,-1,-1,-1,-1,-1,34,-1,-1,-1,-1,-1],"split_conditions":[5E-1,2.1E2,5E-1,2.9285E3,2.435E2,-1.3801461E-1,1.125E2,2.2752795E-1,-1.371728E-1,1.78E2,9.210993E-1,3.6385E3,3.6215E3,6.3655E3,5E-1,4.6642378E-2,5E-1,2.5035E3,-1.6063313E-1,-3.2666147E-2,2.9500958E-1,5.2675E3,1.4820609E2,1.981837E-1,-7.6882236E-2,-4.5075186E-2,-3.0339894E-1,1.3691901E-2,1.758484E-1,1.69E2,2.1284495E-1,-5.8680687E-2,-2.6147735E-1,-8.142745E-3,-2.0291711E-1],"split_indices":[5,3,15,1,2,0,2,0,0,2,4,0,0,0,11,0,9,0,0,0,0,0,2,0,0,0,0,0,0,2,0,0,0,0,0],"split_type":[0,0,0,0,0,0,0,0,0,0,0,0,0,0,0,0,0,0,0,0,0,0,0,0,0,0,0,0,0,0,0,0,0,0,0],"sum_hessian":[3.711277E1,2.9779394E1,7.333377E0,2.6462317E0,2.7133163E1,1.3507113E0,5.9826655E0,1.5191165E0,1.127115E0,2.3162071E1,3.971091E0,3.0494566E0,2.933209E0,1.944304E1,3.7190316E0,1.1160041E0,2.8550868E0,2.0369906E0,1.012466E0,1.2276068E0,1.7056022E0,1.7001719E1,2.4413218E0,2.5706885E0,1.1483431E0,1.4086494E0,1.4464375E0,1.0282596E0,1.008731E0,1.495768E1,2.0440388E0,1.3228294E0,1.1184924E0,1.3827478E1,1.130201E0],"tree_param":{"num_deleted":"0","num_feature":"20","num_nodes":"35","size_leaf_vector":"0"}},{"base_weights":[-6.56371E-3,-2.0265236E-1,1.795662E-2,-2.6724E-1,-2.931408E-2,-7.0880367E-3,1.66441E-1,-4.8504744E-2,1.2909189E-1,-2.3439914E-1,3.3397517E-1,1.9079798E-1,-9.984489E-2,-6.672498E-2,3.1338722E-1,4.4087029E-1,1.0283071E-1,-7.775696E-2,3.047186E-1,-2.0582397E-2,-5.841433E-1,1.9970003E-1,-4.7041088E-1,5.076153E-1,4.0687965E-3,9.0274796E-2,3.6265895E-1,4.5326862E-2,-2.4422078E-1,-1.9806234E-2,3.4589344E-1,-1.841872E-1,1.6096705E-1,8.428435E-2,-4.305337E-1],"categories":[],"categories_nodes":[],"categories_segments":[],"categories_sizes":[],"default_left":[1,1,1,0,0,1,1,1,1,0,1,1,1,1,1,0,0,0,1,1,0,1,0,0,0,0,0,1,1,0,0,0,0,0,0],"id":25,"left_children":[1,3,5,-1,-1,7,9,11,13,-1,15,17,19,21,23,-1,-1,-1,25,27,-1,29,-1,-1,-1,-1,-1,31,33,-1,-1,-1,-1,-1,-1],"loss_changes":[1.8243079E-1,3.934911E-2,1.2750772E-1,0E0,0E0,1.7561737E-1,4.1027308E-1,3.108555E-1,2.834737E-1,0E0,5.0999284E-2,1.6256146E-1,7.6386064E-1,5.6200707E-1,2.3365831E-1,0E0,0E0,0E0,9.386539E-3,2.8237203E-1,0E0,1.1350973E-1,0E0,0E0,0E0,0E0,0E0,4.2935014E-1,3.0230045E-1,0E0,0E0,0E0,0E0,0E0,0E0],"parents":[2147483647,0,0,1,1,2,2,5,5,6,6,7,7,8,8,10,10,11,11,12,12,13,13,14,14,18,18,19,19,21,21,27,27,28,28],"right_children":[2,4,6,-1,-1,8,10,12,14,-1,16,18,20,22,24,-1,-1,-1,26,28,-1,30,-1,-1,-1,-1,-1,32,34,-1,-1,-1,-1,-1,-1],"split_conditions":[4.210993E-1,5E-1,3.0065E3,-1.3362E-1,-1.465704E-2,5E-1,1.4870609E2,5E-1,1.125E2,-1.1719957E-1,2.275E2,1.07E2,2.54E2,3.8565E3,1.505E2,2.2043514E-1,5.1415354E-2,-3.887848E-2,1.575E2,2.075E3,-2.9207164E-1,2.6335E3,-2.3520544E-1,2.5380766E-1,2.0343983E-3,4.5137398E-2,1.8132947E-1,3.6005E3,3.3615E3,-9.903117E-3,1.7294672E-1,-9.20936E-2,8.0483526E-2,4.2142175E-2,-2.1526685E-1],"split_indices":[4,18,1,0,0,5,2,15,2,0,2,2,2,0,2,0,0,0,2,1,0,0,0,0,0,0,0,0,0,0,0,0,0,0,0],"split_type":[0,0,0,0,0,0,0,0,0,0,0,0,0,0,0,0,0,0,0,0,0,0,0,0,0,0,0,0,0,0,0,0,0,0,0],"sum_hessian":[3.6185093E1,3.2144585E0,3.2970634E1,1.9471903E0,1.2672683E0,2.9026962E1,3.9436743E0,2.2751358E1,6.275603E0,1.0447961E0,2.898878E0,3.5390518E0,1.9212307E1,3.3519962E0,2.9236069E0,1.3617749E0,1.5371033E0,1.1486607E0,2.3903913E0,1.7406052E1,1.8062546E0,2.3237042E0,1.0282921E0,1.4021119E0,1.5214949E0,1.0526135E0,1.3377777E0,1.4059769E1,3.3462834E0,1.2745361E0,1.0491681E0,4.511975E0,9.547793E0,1.4092057E0,1.9370779E0],"tree_param":{"num_deleted":"0","num_feature":"20","num_nodes":"35","size_leaf_vector":"0"}},{"base_weights":[-4.5843325E-3,-3.0535165E-2,2.1786176E-1,-1.19996695E-2,-3.0621314E-1,3.5153872E-1,3.795849E-2,1.4702211E-2,-2.2346006E-1,-1.3272049E-1,6.505959E-2,-3.7646365E-1,5.8729816E-2,-2.7454445E-1,1.9696797E-1,1.1424276E-1,-1.9273312E-1,-4.530392E-1,-1.1262144E-2,1.8583006E-1,-3.9321586E-2,1.7801356E-1,-4.4584054E-1,-1.0918695E-1,-5.480209E-1,1.8472463E-1,-1.869669E-1,2.4663904E-1,-1.4931604E-1,-3.212628E-1,8.686444E-2],"categories":[],"categories_nodes":[],"categories_segments":[],"categories_sizes":[],"default_left":[1,1,1,1,0,0,0,1,1,1,1,0,0,1,0,1,1,1,1,1,1,0,0,0,0,0,0,0,0,0,0],"id":26,"left_children":[1,3,5,7,-1,-1,-1,9,11,13,15,-1,-1,17,-1,19,21,23,25,27,29,-1,-1,-1,-1,-1,-1,-1,-1,-1,-1],"loss_changes":[2.1532355E-1,1.6622077E-1,8.043358E-2,1.8506992E-1,0E0,0E0,0E0,2.2781216E-1,1.806219E-1,4.2093873E-1,3.0954796E-1,0E0,0E0,2.7234358E-1,0E0,2.2356644E-1,4.5523745E-1,5.4241776E-2,1.5199275E-1,3.1382877E-1,2.797952E-1,0E0,0E0,0E0,0E0,0E0,0E0,0E0,0E0,0E0,0E0],"parents":[2147483647,0,0,1,1,2,2,3,3,7,7,8,8,9,9,10,10,13,13,15,15,16,16,17,17,18,18,19,19,20,20],"right_children":[2,4,6,8,-1,-1,-1,10,12,14,16,-1,-1,18,-1,20,22,24,26,28,30,-1,-1,-1,-1,-1,-1,-1,-1,-1,-1],"split_conditions":[1.2688E4,4.2E2,1.8249E4,8.3335E3,-1.5310657E-1,1.7576936E-1,1.8979246E-2,5E-1,2.265E2,1.5885E3,5E-1,-1.8823183E-1,2.9364908E-2,4.347E3,9.848399E-2,2.085E3,5E-1,2.829E3,4.909E3,6.403E3,5E-1,8.900678E-2,-2.2292027E-1,-5.4593474E-2,-2.7401045E-1,9.2362314E-2,-9.348345E-2,1.2331952E-1,-7.465802E-2,-1.606314E-1,4.343222E-2],"split_indices":[0,3,0,0,0,0,0,13,2,1,11,0,0,0,0,1,19,0,0,0,9,0,0,0,0,0,0,0,0,0,0],"split_type":[0,0,0,0,0,0,0,0,0,0,0,0,0,0,0,0,0,0,0,0,0,0,0,0,0,0,0,0,0,0,0],"sum_hessian":[3.5148163E1,3.224872E1,2.8994448E0,3.119483E1,1.053889E0,1.1160913E0,1.7833537E0,2.8523533E1,2.6712983E0,6.8460245E0,2.1677507E1,1.5155088E0,1.1557894E0,4.903793E0,1.9422317E0,1.8671999E1,3.0055087E0,2.492943E0,2.4108498E0,1.2591904E1,6.080096E0,1.3397529E0,1.6657557E0,1.0048282E0,1.4881148E0,1.1153816E0,1.2954682E0,1.0881623E1,1.7102797E0,1.4018823E0,4.6782136E0],"tree_param":{"num_deleted":"0","num_feature":"20","num_nodes":"31","size_leaf_vector":"0"}},{"base_weights":[-1.736851E-2,-5.8184814E-2,6.816954E-2,-1.0184986E-1,7.1415305E-2,-3.2018682E-3,1.9114186E-1,-8.799032E-3,-2.1528763E-1,2.8395495E-1,-4.643859E-2,2.3848015E-1,-6.8864696E-2,3.0998862E-1,3.464095E-2,-7.539153E-2,1.7131497E-1,-4.1566214E-1,-9.514114E-2,1.304922E-1,-1.801136E-1,-2.3701663E-1,2.7229515E-1,1.1675766E-1,-1.4722893E-1,4.1370535E-1,-1.2933426E-1,-1.7477013E-1,1.7160231E-1,-3.628162E-1,5.1429383E-2,-3.2515234E-1,6.6192955E-2,3.475448E-2,-3.2051858E-1,3.2951236E-3,-3.6121112E-1,1.4719181E-1,-1.5370888E-1,-4.097175E-1,-7.379444E-2,1.8086727E-1,-1.3677597E-1],"categories":[],"categories_nodes":[],"categories_segments":[],"categories_sizes":[],"default_left":[1,1,1,1,1,1,1,1,1,0,1,0,1,0,0,1,1,0,1,0,1,1,0,0,1,0,0,1,0,0,0,0,0,1,1,1,0,0,0,0,0,0,0],"id":27,"left_children":[1,3,5,7,9,11,13,15,17,-1,19,-1,21,-1,-1,23,25,-1,27,-1,29,31,-1,-1,33,-1,-1,35,-1,-1,-1,-1,-1,37,39,41,-1,-1,-1,-1,-1,-1,-1],"loss_changes":[1.2749237E-1,1.4586864E-1,1.0496266E-1,1.958224E-1,1.8251261E-1,1.5141992E-1,7.078038E-2,1.4884512E-1,1.6263673E-1,0E0,1.466798E-1,0E0,4.927928E-1,0E0,0E0,1.409834E-1,2.9870224E-1,0E0,1.6905376E-1,0E0,1.6193214E-1,1.694423E-1,0E0,0E0,2.3094599E-1,0E0,0E0,1.8502294E-1,0E0,0E0,0E0,0E0,0E0,1.1378378E-1,5.049169E-2,1.1983308E-1,0E0,0E0,0E0,0E0,0E0,0E0,0E0],"parents":[2147483647,0,0,1,1,2,2,3,3,4,4,5,5,6,6,7,7,8,8,10,10,12,12,15,15,16,16,18,18,20,20,21,21,24,24,27,27,33,33,34,34,35,35],"right_children":[2,4,6,8,10,12,14,16,18,-1,20,-1,22,-1,-1,24,26,-1,28,-1,30,32,-1,-1,34,-1,-1,36,-1,-1,-1,-1,-1,38,40,42,-1,-1,-1,-1,-1,-1,-1],"split_conditions":[5E-1,1.78E2,1.7295E3,1.325E2,1.93E2,8.55E1,2.502E3,1.145E2,5E-1,1.4197747E-1,5E-1,1.19240075E-1,5E-1,1.5499431E-1,1.7320475E-2,5E-1,1.2325E3,-2.0783107E-1,2.743E3,6.52461E-2,2.57E2,1.755E2,1.3614757E-1,5.837883E-2,9.35E1,2.0685267E-1,-6.466713E-2,1.5815E3,8.5801154E-2,-1.814081E-1,2.5714692E-2,-1.6257617E-1,3.3096477E-2,5E-1,6.25E2,1.4520609E2,-1.8060556E-1,7.3595904E-2,-7.685444E-2,-2.0485875E-1,-3.689722E-2,9.0433635E-2,-6.8387985E-2],"split_indices":[18,2,1,2,2,2,1,2,13,0,9,0,10,0,0,13,1,0,1,0,2,2,0,0,2,0,0,1,0,0,0,0,0,17,1,2,0,0,0,0,0,0,0],"split_type":[0,0,0,0,0,0,0,0,0,0,0,0,0,0,0,0,0,0,0,0,0,0,0,0,0,0,0,0,0,0,0,0,0,0,0,0,0,0,0,0,0,0,0],"sum_hessian":[3.4380592E1,2.3491095E1,1.0889499E1,1.7731197E1,5.759897E0,7.506686E0,3.3828125E0,1.0332891E1,7.398307E0,1.5518622E0,4.208035E0,1.0414782E0,6.465208E0,1.365276E0,2.0175366E0,7.968257E0,2.364634E0,1.8512512E0,5.5470552E0,1.8212534E0,2.3867815E0,4.5351644E0,1.9300438E0,1.9982021E0,5.970055E0,1.100968E0,1.263666E0,4.537353E0,1.0097024E0,1.0171967E0,1.3695847E0,3.4577203E0,1.077444E0,3.301922E0,2.668133E0,2.823256E0,1.714097E0,2.2052555E0,1.0966666E0,1.4744432E0,1.1936898E0,1.1165369E0,1.706719E0],"tree_param":{"num_deleted":"0","num_feature":"20","num_nodes":"43","size_leaf_vector":"0"}},{"base_weights":[-7.4464446E-3,-1.7389174E-1,1.4304435E-2,-2.4867159E-1,-4.7956947E-2,-1.9194862E-2,1.0238706E-1,1.9269835E-2,-3.8411108E-1,1.9370587E-1,-9.6197166E-2,8.012263E-2,-8.568016E-2,4.113702E-1,7.060447E-2,1.4241508E-1,-3.418405E-1,-1.1854951E-1,1.648458E-1,8.4915295E-2,-3.3045173E-1,2.2965488E-1,-2.3177013E-1,7.203054E-2,-3.605991E-1,3.053068E-1,-1.2414386E-2,2.6521316E-1,-1.1617329E-1,-4.0396395E-1,-1.0043071E-1,3.7691057E-1,-1.0070193E-1,-1.4742002E-1,2.1622214E-1,4.0629348E-1,8.360958E-2,2.0229708E-1,-2.509152E-1,-7.268799E-2,4.4344682E-1,-1.8476163E-1,7.894659E-3],"categories":[],"categories_nodes":[],"categories_segments":[],"categories_sizes":[],"default_left":[1,1,1,0,0,1,1,1,0,1,1,1,1,0,1,0,0,1,1,1,1,1,0,1,0,1,1,1,1,0,0,0,0,0,0,0,0,0,0,0,0,0,0],"id":28,"left_children":[1,3,5,-1,-1,7,9,11,-1,13,15,17,19,-1,21,-1,-1,23,25,27,29,31,-1,33,-1,35,37,39,41,-1,-1,-1,-1,-1,-1,-1,-1,-1,-1,-1,-1,-1,-1],"loss_changes":[1.281506E-1,2.6569761E-2,9.5274664E-2,0E0,0E0,3.407925E-1,1.7950201E-1,1.5017308E-1,0E0,1.4266632E-1,2.5163072E-1,2.6731753E-1,3.9213347E-1,0E0,3.0814517E-1,0E0,0E0,2.558135E-1,2.7114448E-1,2.4593496E-1,2.3437649E-2,2.3136462E-1,0E0,1.4645791E-1,0E0,1.01029694E-1,3.430617E-1,2.3899229E-1,3.1245835E-2,0E0,0E0,0E0,0E0,0E0,0E0,0E0,0E0,0E0,0E0,0E0,0E0,0E0,0E0],"parents":[2147483647,0,0,1,1,2,2,5,5,6,6,7,7,9,9,10,10,11,11,12,12,14,14,17,17,18,18,19,19,20,20,21,21,23,23,25,25,26,26,27,27,28,28],"right_children":[2,4,6,-1,-1,8,10,12,-1,14,16,18,20,-1,22,-1,-1,24,26,28,30,32,-1,34,-1,36,38,40,42,-1,-1,-1,-1,-1,-1,-1,-1,-1,-1,-1,-1,-1,-1],"split_conditions":[4.210993E-1,4.3165E3,6.233E3,-1.24335796E-1,-2.3978474E-2,5.9775E3,5E-1,5E-1,-1.9205554E-1,5E-1,9.7355E3,9.95E1,1.375E2,2.056851E-1,2.595E2,7.120754E-2,-1.7092025E-1,2.7606E2,4.0295E3,3.505E3,1.958E3,5E-1,-1.15885064E-1,6.55E1,-1.8029955E-1,1.505E2,1.427E3,2.4895E3,1.05E2,-2.0198198E-1,-5.0215356E-2,1.8845528E-1,-5.0350964E-2,-7.371001E-2,1.0811107E-1,2.0314674E-1,4.180479E-2,1.0114854E-1,-1.254576E-1,-3.6343995E-2,2.2172341E-1,-9.2380814E-2,3.9473297E-3],"split_indices":[4,0,0,0,0,0,17,19,0,15,0,2,2,0,2,0,0,1,0,0,1,7,0,2,0,2,1,0,2,0,0,0,0,0,0,0,0,0,0,0,0,0,0],"split_type":[0,0,0,0,0,0,0,0,0,0,0,0,0,0,0,0,0,0,0,0,0,0,0,0,0,0,0,0,0,0,0,0,0,0,0,0,0,0,0,0,0,0,0],"sum_hessian":[3.3710407E1,3.0876832E0,3.0622725E1,1.3258123E0,1.7618709E0,2.2751884E1,7.8708405E0,2.1439234E1,1.3126498E0,5.408371E0,2.4624698E0,1.3720366E1,7.7188687E0,1.1078264E0,4.3005447E0,1.4622806E0,1.0001891E0,3.9824462E0,9.73792E0,4.9335065E0,2.7853622E0,2.9757712E0,1.3247734E0,2.6211069E0,1.3613393E0,5.029878E0,4.708041E0,2.4330893E0,2.5004172E0,1.5377192E0,1.247643E0,1.9608208E0,1.0149504E0,1.0304449E0,1.5906621E0,2.8836691E0,2.1462088E0,2.557467E0,2.1505742E0,1.0446961E0,1.388393E0,1.2951976E0,1.2052197E0],"tree_param":{"num_deleted":"0","num_feature":"20","num_nodes":"43","size_leaf_vector":"0"}},{"base_weights":[-1.0414364E-2,-2.6696682E-2,2.2076082E-1,-2.0109853E-1,-3.4243814E-3,1.005634E-2,-3.2505348E-1,5.7157133E-2,-9.054315E-2,-2.2735798E-1,1.05946295E-1,5.168634E-2,-1.5721157E-1,4.395111E-1,-4.4156895E-3,1.8886556E-1,-1.1904655E-1,-3.4822407E-1,6.22227E-3,5.783367E-1,1.0673146E-1,-1.2331976E-1,1.6709748E-1,-4.6410698E-1,-1.3182373E-1,1.1373175E-1,-1.7247139E-1,-3.1225628E-1,-1.860014E-2,3.7342656E-1,1.2112465E-2,-1.9941801E-1,2.845702E-1],"categories":[],"categories_nodes":[],"categories_segments":[],"categories_sizes":[],"default_left":[1,1,0,1,1,0,0,1,1,0,1,1,1,1,1,0,0,1,1,0,0,1,1,0,0,1,0,0,0,0,0,0,0],"id":29,"left_children":[1,3,-1,5,7,-1,-1,9,11,-1,13,15,17,19,21,-1,-1,23,25,-1,-1,27,29,-1,-1,31,-1,-1,-1,-1,-1,-1,-1],"loss_changes":[1.3225518E-1,1.3022056E-1,0E0,1.0220349E-1,1.6073157E-1,0E0,0E0,2.7391818E-1,1.2642679E-1,0E0,5.926149E-1,1.3336456E-1,2.750693E-1,1.2301469E-1,2.8667045E-1,0E0,0E0,4.0341586E-2,1.2899415E-1,0E0,0E0,1.5802014E-1,1.7986692E-1,0E0,0E0,2.791605E-1,0E0,0E0,0E0,0E0,0E0,0E0,0E0],"parents":[2147483647,0,0,1,1,3,3,4,4,7,7,8,8,10,10,11,11,12,12,13,13,14,14,17,17,18,18,21,21,22,22,25,25],"right_children":[2,4,-1,6,8,-1,-1,10,12,-1,14,16,18,20,22,-1,-1,24,26,-1,-1,28,30,-1,-1,32,-1,-1,-1,-1,-1,-1,-1],"split_conditions":[1.9948E4,4.210993E-1,1.1038041E-1,1.4E2,5E-1,5.02817E-3,-1.6252674E-1,9.45E1,9.45E1,-1.1367899E-1,1.275E2,5E-1,1.275E2,5E-1,1.755E2,9.443278E-2,-5.9523273E-2,3.4795E3,1.885E2,2.8916836E-1,5.336573E-2,5E-1,2.025E2,-2.3205349E-1,-6.591187E-2,3.756E3,-8.6235695E-2,-1.5612814E-1,-9.30007E-3,1.8671328E-1,6.0562324E-3,-9.9709004E-2,1.422851E-1],"split_indices":[0,4,0,2,7,0,0,2,2,0,2,19,2,19,2,0,0,0,2,0,0,13,2,0,0,0,0,0,0,0,0,0,0],"split_type":[0,0,0,0,0,0,0,0,0,0,0,0,0,0,0,0,0,0,0,0,0,0,0,0,0,0,0,0,0,0,0,0,0],"sum_hessian":[3.2570488E1,3.1253717E1,1.3167697E0,2.779927E0,2.847379E1,1.3681614E0,1.4117655E0,1.6997686E1,1.1476104E1,1.9523722E0,1.5045315E1,3.734244E0,7.7418594E0,2.9988766E0,1.2046438E1,2.011696E0,1.722548E0,3.0483925E0,4.6934667E0,1.5954188E0,1.4034578E0,7.2802706E0,4.766167E0,1.2398052E0,1.8085872E0,3.1573892E0,1.5360779E0,1.8894566E0,5.3908143E0,1.4398633E0,3.3263037E0,1.055447E0,2.101942E0],"tree_param":{"num_deleted":"0","num_feature":"20","num_nodes":"33","size_leaf_vector":"0"}},{"base_weights":[-6.6297124E-3,-2.4847029E-2,1.5563841E-1,1.4468753E-2,-1.3307892E-1,4.8090022E-2,1.8868195E-1,-1.3133757E-2,2.2738998E-1,-4.1371563E-1,-2.8930612E-2,1.9217473E-2,-3.3429363E-1,1.4087304E-1,-1.0800253E-1,-2.866799E-2,3.9862338E-1,1.6598603E-1,-3.0373326E-1,-6.908835E-2,2.8999838E-1,-5.24652E-1,3.115679E-2,1.6318021E-2,-3.2975212E-1],"categories":[],"categories_nodes":[],"categories_segments":[],"categories_sizes":[],"default_left":[1,1,1,1,1,0,0,1,0,0,1,1,0,0,1,1,0,0,1,1,0,0,0,0,0],"id":30,"left_children":[1,3,5,7,9,-1,-1,11,-1,-1,13,15,-1,-1,17,19,-1,-1,21,23,-1,-1,-1,-1,-1],"loss_changes":[1.00797124E-1,1.3103999E-1,3.1772926E-3,1.39098E-1,2.2720815E-1,0E0,0E0,2.2925709E-1,0E0,0E0,1.097852E-1,3.8259977E-1,0E0,0E0,3.3848786E-1,2.6571167E-1,0E0,0E0,2.7430388E-1,4.0018037E-1,0E0,0E0,0E0,0E0,0E0],"parents":[2147483647,0,0,1,1,2,2,3,3,4,4,7,7,10,10,11,11,14,14,15,15,18,18,19,19],"right_children":[2,4,6,8,10,-1,-1,12,-1,-1,14,16,-1,-1,18,20,-1,-1,22,24,-1,-1,-1,-1,-1],"split_conditions":[2.77E2,5.9145E3,1.48415E4,5.258E3,6.233E3,2.4045011E-2,9.434097E-2,4.924E3,1.1369499E-1,-2.0685782E-1,7.225E3,5E-1,-1.6714682E-1,7.043652E-2,5E-1,4.6935E3,1.9931169E-1,8.2993016E-2,9.247E3,4.1955E3,1.4499919E-1,-2.62326E-1,1.5578395E-2,8.159011E-3,-1.6487606E-1],"split_indices":[2,0,0,0,0,0,0,0,0,0,0,12,0,0,9,0,0,0,0,0,0,0,0,0,0],"split_type":[0,0,0,0,0,0,0,0,0,0,0,0,0,0,0,0,0,0,0,0,0,0,0,0,0],"sum_hessian":[3.1789923E1,2.9342602E1,2.447322E0,2.2159403E1,7.183198E0,1.1522831E0,1.2950389E0,2.0447025E1,1.7123785E0,1.1397289E0,6.0434694E0,1.9429958E1,1.0170656E0,1.6717894E0,4.37168E0,1.8073334E1,1.3566262E0,1.8849914E0,2.4866884E0,1.6733955E1,1.3393772E0,1.1568822E0,1.3298062E0,1.3310255E1,3.4237008E0],"tree_param":{"num_deleted":"0","num_feature":"20","num_nodes":"25","size_leaf_vector":"0"}},{"base_weights":[-4.73723E-3,-6.390451E-2,7.024088E-2,-8.01732E-3,-2.3740047E-1,3.7492254E-1,9.35022E-3,-5.8237474E-2,1.0280329E-1,-2.8330117E-1,-4.6378393E-2,-5.4465514E-2,1.3553217E-1,-2.4125251E-1,3.3220664E-2,1.7494899E-1,-4.865974E-2,-2.6044935E-1,1.2223434E-2,1.9870183E-1,3.6074728E-2,-2.4392134E-1,1.1317663E-1,-7.288319E-2,3.122727E-1,2.8187254E-1,-1.0711607E-1,-1.0235175E-1,1.5708478E-1,7.020903E-3,2.1421888E-1,-3.3948448E-1,3.4666385E-3,8.393349E-2,-3.990637E-2,2.0923503E-1,-1.1494599E-1],"categories":[],"categories_nodes":[],"categories_segments":[],"categories_sizes":[],"default_left":[1,1,1,1,1,0,1,1,1,0,0,1,1,0,1,1,0,0,1,0,1,0,1,0,0,0,1,0,0,1,0,0,1,0,0,0,0],"id":31,"left_children":[1,3,5,7,9,-1,11,13,15,-1,-1,17,19,-1,21,23,-1,-1,25,-1,27,-1,29,-1,-1,-1,31,-1,-1,33,-1,-1,35,-1,-1,-1,-1],"loss_changes":[1.4771467E-1,1.7814478E-1,2.6951757E-1,8.9912124E-2,2.6222527E-2,0E0,1.1440461E-1,1.9239467E-1,6.385161E-2,0E0,0E0,1.3423407E-1,2.267927E-2,0E0,2.0984234E-1,1.4690888E-1,0E0,0E0,2.9284388E-1,0E0,6.745593E-2,0E0,7.428361E-2,0E0,0E0,0E0,1.6518268E-1,0E0,0E0,1.9517407E-2,0E0,0E0,1.535399E-1,0E0,0E0,0E0,0E0],"parents":[2147483647,0,0,1,1,2,2,3,3,4,4,6,6,7,7,8,8,11,11,12,12,14,14,15,15,18,18,20,20,22,22,26,26,29,29,32,32],"right_children":[2,4,6,8,10,-1,12,14,16,-1,-1,18,20,-1,22,24,-1,-1,26,-1,28,-1,30,-1,-1,-1,32,-1,-1,34,-1,-1,36,-1,-1,-1,-1],"split_conditions":[8.06E0,5E-1,1.316E3,5E-1,5E-1,1.8746127E-1,5E-1,5E-1,5E-1,-1.4165059E-1,-2.3189196E-2,1.611E3,5E-1,-1.20626256E-1,9.210993E-1,5E-1,-2.432987E-2,-1.3022467E-1,2.075E3,9.9350914E-2,3.2555E3,-1.2196067E-1,5E-1,-3.6441594E-2,1.5613635E-1,1.4093627E-1,2.4585E3,-5.1175874E-2,7.854239E-2,5E-1,1.0710944E-1,-1.6974224E-1,2.921E3,4.1966744E-2,-1.9953186E-2,1.0461751E-1,-5.7472996E-2],"split_indices":[1,10,1,17,19,0,18,9,5,0,0,1,9,0,4,13,0,0,1,0,1,0,18,0,0,0,1,0,0,7,0,0,1,0,0,0,0],"split_type":[0,0,0,0,0,0,0,0,0,0,0,0,0,0,0,0,0,0,0,0,0,0,0,0,0,0,0,0,0,0,0,0,0,0,0,0,0],"sum_hessian":[3.1285362E1,1.756893E1,1.3716433E1,1.4079724E1,3.489205E0,1.4256297E0,1.2290803E1,1.0015518E1,4.0642056E0,2.4237268E0,1.0654781E0,8.540072E0,3.7507308E0,2.7915525E0,7.2239656E0,2.6478882E0,1.4163173E0,1.3780915E0,7.1619806E0,1.6835676E0,2.0671632E0,1.1583202E0,6.0656457E0,1.1113898E0,1.5364984E0,1.7794203E0,5.3825603E0,1.0361141E0,1.0310491E0,3.4795208E0,2.586125E0,1.06813E0,4.31443E0,1.0196896E0,2.4598312E0,1.2957596E0,3.0186708E0],"tree_param":{"num_deleted":"0","num_feature":"20","num_nodes":"37","size_leaf_vector":"0"}},{"base_weights":[-8.633888E-4,1.3808842E-1,-1.6402777E-2,2.6668823E-1,-7.6851E-2,-2.1482506E-1,7.7343117E-3,-3.213372E-2,-2.828133E-1,-1.9964654E-2,1.9304988E-1,6.827225E-3,-2.5744566E-1,4.046348E-1,-5.3176783E-2,1.0577027E-1,-6.945531E-2,-4.884904E-2,3.4236166E-1,2.697134E-2,-2.1298008E-1,-3.668965E-1,6.268135E-2,4.555085E-1,9.8043956E-2,-4.3895908E-2,1.8672335E-1,-3.6388683E-1,-2.8193041E-3],"categories":[],"categories_nodes":[],"categories_segments":[],"categories_sizes":[],"default_left":[1,1,1,0,0,1,1,0,0,1,1,1,0,0,0,1,1,1,1,1,1,0,0,0,0,0,0,0,0],"id":32,"left_children":[1,3,5,-1,-1,7,9,-1,-1,11,13,15,-1,-1,-1,17,19,21,23,25,27,-1,-1,-1,-1,-1,-1,-1,-1],"loss_changes":[7.0846505E-2,1.1173703E-1,1.4276075E-1,0E0,0E0,3.1030059E-2,1.436335E-1,0E0,0E0,1.5825474E-1,2.1087676E-1,1.8152386E-1,0E0,0E0,0E0,3.9873654E-1,1.9443886E-1,2.780611E-1,7.2886646E-2,1.1057247E-1,1.7630678E-1,0E0,0E0,0E0,0E0,0E0,0E0,0E0,0E0],"parents":[2147483647,0,0,1,1,2,2,5,5,6,6,9,9,10,10,11,11,15,15,16,16,17,17,18,18,19,19,20,20],"right_children":[2,4,6,-1,-1,8,10,-1,-1,12,14,16,-1,-1,-1,18,20,22,24,26,28,-1,-1,-1,-1,-1,-1,-1,-1],"split_conditions":[2.1E2,2.6555E3,4.210993E-1,1.3334411E-1,-3.84255E-2,1.4E2,3.0065E3,-1.606686E-2,-1.4140666E-1,2.536E3,4.589E3,5E-1,-1.2872283E-1,2.023174E-1,-2.6588392E-2,9.45E1,5E-1,9.45E1,5E-1,5E-1,5E-1,-1.8344826E-1,3.1340674E-2,2.2775425E-1,4.9021978E-2,-2.1947954E-2,9.3361676E-2,-1.8194342E-1,-1.4096521E-3],"split_indices":[3,1,4,0,0,2,1,0,0,1,1,9,0,0,0,1,17,2,11,5,7,0,0,0,0,0,0,0,0],"split_type":[0,0,0,0,0,0,0,0,0,0,0,0,0,0,0,0,0,0,0,0,0,0,0,0,0,0,0,0,0],"sum_hessian":[3.076206E1,2.3009374E0,2.8461124E1,1.2889748E0,1.0119628E0,2.22988E0,2.6231243E1,1.0041807E0,1.2256994E0,2.3596552E1,2.6346908E0,2.207713E1,1.5194228E0,1.0710146E0,1.563676E0,9.442752E0,1.26343775E1,6.1905675E0,3.2521849E0,8.042876E0,4.5915017E0,1.0127854E0,5.1777816E0,1.6319815E0,1.6202034E0,6.0737414E0,1.9691347E0,2.2467473E0,2.3447542E0],"tree_param":{"num_deleted":"0","num_feature":"20","num_nodes":"29","size_leaf_vector":"0"}},{"base_weights":[3.6314325E-4,-1.5613413E-2,1.7482397E-1,7.94477E-3,-1.860428E-1,2.4982409E-1,-1.5010968E-2,-2.3982379E-1,-2.87618E-2,7.145911E-3,-2.4990511E-1,-1.972249E-2,2.3225099E-1,3.56323E-2,-1.8801287E-1,-1.4253576E-2,4.140651E-1,3.368906E-2,-2.797692E-1],"categories":[],"categories_nodes":[],"categories_segments":[],"categories_sizes":[],"default_left":[1,1,0,1,1,0,1,0,0,1,0,1,0,1,1,0,0,0,0],"id":33,"left_children":[1,3,-1,5,7,-1,9,-1,-1,11,-1,13,-1,15,17,-1,-1,-1,-1],"loss_changes":[8.9291535E-2,1.19393274E-1,0E0,1.5234154E-1,2.361735E-2,0E0,1.3390139E-1,0E0,0E0,1.5075922E-1,0E0,2.1642743E-1,0E0,3.4159443E-1,1.260219E-1,0E0,0E0,0E0,0E0],"parents":[2147483647,0,0,1,1,3,3,4,4,6,6,9,9,11,11,13,13,14,14],"right_children":[2,4,-1,6,8,-1,10,-1,-1,12,-1,14,-1,16,18,-1,-1,-1,-1],"split_conditions":[5.281E3,2.921E3,8.7411985E-2,2.1E2,5E-1,1.24912046E-1,1.8249E4,-1.19911894E-1,-1.43809E-2,2.45E2,-1.24952555E-1,5.9145E3,1.16125494E-1,5.258E3,1.4820609E2,-7.126788E-3,2.0703255E-1,1.684453E-2,-1.398846E-1],"split_indices":[1,1,0,3,17,0,0,0,0,2,0,0,0,0,2,0,0,0,0],"split_type":[0,0,0,0,0,0,0,0,0,0,0,0,0,0,0,0,0,0,0],"sum_hessian":[3.005602E1,2.836862E1,1.6874014E0,2.576109E1,2.6075306E0,1.376315E0,2.4384773E1,1.5520191E0,1.0555115E0,2.3168898E1,1.2158762E0,2.151345E1,1.6554466E0,1.6781784E1,4.731667E0,1.5677478E1,1.1043059E0,1.5703135E0,3.1613536E0],"tree_param":{"num_deleted":"0","num_feature":"20","num_nodes":"19","size_leaf_vector":"0"}},{"base_weights":[5.593833E-3,-1.4814962E-1,2.3087513E-2,8.893113E-2,-3.304786E-1,-1.3057807E-2,1.9743271E-1,1.5232612E-2,-2.0739666E-1,4.5171463E-1,-3.555737E-2,-2.4422579E-2,3.5256213E-1,3.0038811E-2,-3.352312E-1,1.2840591E-1,-1.8599921E-1,-1.7543769E-1,4.0847626E-2,-3.2579627E-2,-3.8211513E-1,2.5478187E-1,-4.970674E-3,1.3656305E-1,-3.0147535E-1,-2.6917484E-1,6.427646E-2],"categories":[],"categories_nodes":[],"categories_segments":[],"categories_sizes":[],"default_left":[1,1,1,0,0,1,1,1,1,0,1,1,0,0,0,0,0,1,1,1,0,0,1,0,0,0,0],"id":34,"left_children":[1,3,5,-1,-1,7,9,11,13,-1,15,17,-1,-1,-1,-1,-1,19,21,23,-1,-1,25,-1,-1,-1,-1],"loss_changes":[8.6266264E-2,1.7124598E-1,1.8231265E-1,0E0,0E0,1.381972E-1,3.099001E-1,3.0787843E-1,1.0688117E-1,0E0,1.1059356E-1,2.1370474E-1,0E0,0E0,0E0,0E0,0E0,1.798301E-1,1.5262698E-1,2.6602665E-1,0E0,0E0,2.679249E-1,0E0,0E0,0E0,0E0],"parents":[2147483647,0,0,1,1,2,2,5,5,6,6,7,7,8,8,10,10,11,11,17,17,18,18,19,19,22,22],"right_children":[2,4,6,-1,-1,8,10,12,14,-1,16,18,-1,-1,-1,-1,-1,20,22,24,-1,-1,26,-1,-1,-1,-1],"split_conditions":[2.131E3,2.8065E3,2.5905E3,4.4465564E-2,-1.652393E-1,2.085E3,3.6965E3,1.7375E3,3.4985E3,2.2585732E-1,4.589E3,3.6005E3,1.7628106E-1,1.5019406E-2,-1.676156E-1,6.420296E-2,-9.299961E-2,3.248E3,4.1955E3,2.7606E2,-1.9105756E-1,1.2739094E-1,4.634E3,6.8281524E-2,-1.5073767E-1,-1.3458742E-1,3.213823E-2],"split_indices":[0,1,1,0,0,1,0,1,0,0,1,0,0,0,0,0,0,0,0,1,0,0,0,0,0,0,0],"split_type":[0,0,0,0,0,0,0,0,0,0,0,0,0,0,0,0,0,0,0,0,0,0,0,0,0,0,0],"sum_hessian":[2.9803E1,2.281679E0,2.752132E1,1.2145977E0,1.0670812E0,2.356162E1,3.959701E0,2.1372051E1,2.189568E0,1.4444633E0,2.5152378E0,1.9953941E1,1.4181101E0,1.0340247E0,1.1555432E0,1.273621E0,1.2416168E0,5.512304E0,1.4441638E1,3.9438796E0,1.5684243E0,1.7429191E0,1.2698719E1,2.7231061E0,1.2207733E0,2.0375454E0,1.0661174E1],"tree_param":{"num_deleted":"0","num_feature":"20","num_nodes":"27","size_leaf_vector":"0"}},{"base_weights":[-1.4998226E-3,-1.4828318E-1,1.7586395E-2,-2.3156913E-1,-1.6122453E-2,-2.9253477E-2,8.239888E-2,-1.297847E-1,3.2298166E-2,3.0876026E-1,1.9890355E-2,2.9477656E-2,-3.4727496E-1,-5.569809E-2,3.32016E-1,-1.8123119E-1,7.896496E-2,-2.8928632E-1,2.590372E-1,2.4464096E-1,-1.5633467E-1,3.0969313E-1,8.193451E-3,-2.3683964E-1,2.6089204E-2,-1.0771648E-1,1.5587853E-1,-3.1608555E-2,-4.859156E-1,-1.2192965E-1,1.6148113E-1,9.1220036E-2,-3.1457886E-1,2.7456534E-1,5.1430236E-3],"categories":[],"categories_nodes":[],"categories_segments":[],"categories_sizes":[],"default_left":[1,1,1,0,0,1,1,1,1,0,1,1,0,1,0,0,1,0,0,0,1,0,1,1,1,1,1,0,0,0,0,0,0,0,0],"id":35,"left_children":[1,3,5,-1,-1,7,9,11,13,-1,15,17,-1,19,-1,-1,21,-1,-1,-1,23,-1,25,27,29,31,33,-1,-1,-1,-1,-1,-1,-1,-1],"loss_changes":[8.70705E-2,3.561882E-2,8.61184E-2,0E0,0E0,1.07801415E-1,1.6124062E-1,2.373886E-1,3.1351617E-1,0E0,1.371455E-1,4.1940603E-1,0E0,3.2549456E-1,0E0,0E0,1.3932621E-1,0E0,0E0,0E0,1.1968058E-1,0E0,1.4818475E-1,2.638176E-1,8.516468E-2,2.3000751E-1,6.628243E-2,0E0,0E0,0E0,0E0,0E0,0E0,0E0,0E0],"parents":[2147483647,0,0,1,1,2,2,5,5,6,6,7,7,8,8,10,10,11,11,13,13,16,16,20,20,22,22,23,23,24,24,25,25,26,26],"right_children":[2,4,6,-1,-1,8,10,12,14,-1,16,18,-1,20,-1,-1,22,-1,-1,-1,24,-1,26,28,30,32,34,-1,-1,-1,-1,-1,-1,-1,-1],"split_conditions":[4.210993E-1,4.3165E3,8.06E0,-1.1578456E-1,-8.061226E-3,4.2555E3,1.427E3,1.115E2,5E-1,1.5438013E-1,1.718E3,6.55E1,-1.7363748E-1,4.886E3,1.66008E-1,-9.061559E-2,5E-1,-1.4464316E-1,1.295186E-1,1.2232048E-1,5E-1,1.5484656E-1,3.0065E3,5E-1,1.4920609E2,5E-1,4.589E3,-1.5804278E-2,-2.429578E-1,-6.0964826E-2,8.074056E-2,4.5610018E-2,-1.5728943E-1,1.3728267E-1,2.5715118E-3],"split_indices":[4,0,1,0,0,0,1,2,5,0,1,2,0,0,0,0,13,0,0,0,7,0,1,18,2,17,1,0,0,0,0,0,0,0,0],"split_type":[0,0,0,0,0,0,0,0,0,0,0,0,0,0,0,0,0,0,0,0,0,0,0,0,0,0,0,0,0,0,0,0,0,0,0],"sum_hessian":[2.914869E1,2.5751631E0,2.6573526E1,1.1182677E0,1.4568955E0,1.5744005E1,1.0829521E1,5.5578747E0,1.018613E1,1.490933E0,9.338589E0,3.7074625E0,1.8504121E0,8.503649E0,1.682481E0,1.6507428E0,7.6878457E0,1.4432294E0,2.264233E0,1.7751049E0,6.728544E0,1.0121367E0,6.6757092E0,4.4614024E0,2.2671418E0,3.8918462E0,2.783863E0,3.0638146E0,1.3975875E0,1.1305673E0,1.1365745E0,2.2689044E0,1.6229417E0,1.097894E0,1.685969E0],"tree_param":{"num_deleted":"0","num_feature":"20","num_nodes":"35","size_leaf_vector":"0"}},{"base_weights":[-4.975963E-4,-1.477985E-2,1.7967679E-1,6.1164927E-3,-2.6237726E-1,-1.2342799E-2,2.4168386E-1,-1.4539182E-1,1.6492514E-2,1.058115E-1,-2.4527878E-1,-3.96232E-2,8.136616E-2,-3.3468014E-1,-4.516307E-2,-2.3701803E-1,5.6791417E-2,2.0214911E-1,-3.2452792E-2,-8.310117E-2,-3.310885E-1,1.7218791E-1,-6.834046E-2,4.116004E-1,-1.1757203E-1,1.2880428E-1,-2.0687091E-1],"categories":[],"categories_nodes":[],"categories_segments":[],"categories_sizes":[],"default_left":[1,1,0,1,0,1,0,1,1,0,1,1,1,0,0,1,1,1,1,0,0,0,0,0,0,0,0],"id":36,"left_children":[1,3,-1,5,-1,7,-1,9,11,-1,13,15,17,-1,-1,19,21,23,25,-1,-1,-1,-1,-1,-1,-1,-1],"loss_changes":[7.847765E-2,1.4763674E-1,0E0,1.2041339E-1,0E0,1.0212561E-1,0E0,1.4469025E-1,8.4268406E-2,0E0,5.0850302E-2,2.5343958E-1,1.5301001E-1,0E0,0E0,3.5196513E-2,1.4574386E-1,4.0375954E-1,2.0514108E-1,0E0,0E0,0E0,0E0,0E0,0E0,0E0,0E0],"parents":[2147483647,0,0,1,1,3,3,5,5,7,7,8,8,10,10,11,11,12,12,15,15,16,16,17,17,18,18],"right_children":[2,4,-1,6,-1,8,-1,10,12,-1,14,16,18,-1,-1,20,22,24,26,-1,-1,-1,-1,-1,-1,-1,-1],"split_conditions":[1.9948E4,3.02E2,8.983839E-2,2.585E2,-1.3118863E-1,5E-1,1.2084193E-1,3.6665E3,8.06E0,5.290575E-2,6.15E3,3.4905E3,2.075E3,-1.6734007E-1,-2.2581534E-2,9.15E1,4.924E3,5E-1,3.692E3,-4.1550584E-2,-1.6554426E-1,8.6093955E-2,-3.417023E-2,2.058002E-1,-5.8786016E-2,6.440214E-2,-1.0343546E-1],"split_indices":[0,2,0,2,0,15,0,0,1,0,0,0,1,0,0,2,0,17,0,0,0,0,0,0,0,0,0],"split_type":[0,0,0,0,0,0,0,0,0,0,0,0,0,0,0,0,0,0,0,0,0,0,0,0,0,0,0],"sum_hessian":[2.8464952E1,2.7224834E1,1.2401179E0,2.600537E1,1.2194643E0,2.4994389E1,1.0109811E0,3.7320755E0,2.1262314E1,1.0449196E0,2.6871557E0,1.1609404E1,9.65291E0,1.3925867E0,1.2945689E0,3.331114E0,8.278289E0,4.3066745E0,5.346236E0,1.9780492E0,1.3530649E0,4.11104E0,4.1672487E0,2.428425E0,1.8782493E0,2.9138117E0,2.4324243E0],"tree_param":{"num_deleted":"0","num_feature":"20","num_nodes":"27","size_leaf_vector":"0"}},{"base_weights":[-3.071939E-3,-7.876557E-2,3.6436923E-2,1.5494103E-2,-2.3485184E-1,-5.956559E-3,2.3457718E-1,-1.9764355E-1,1.2908791E-1,-4.5567676E-1,2.9133228E-4,-1.7225502E-1,4.005592E-2,3.9681306E-1,-4.4977527E-2,-1.4589576E-1,2.3274426E-1,-2.8368878E-1,7.447019E-2,1.23639986E-1,-1.5484472E-1,3.0324614E-1,3.0798495E-2,-4.766131E-2,2.053254E-1,-3.3818996E-1,1.3929094E-1,2.6571444E-1,-2.3052298E-1,3.8001668E-1,2.9171319E-3,7.813483E-2,5.034106E-1,-1.6252452E-1,1.356444E-1],"categories":[],"categories_nodes":[],"categories_segments":[],"categories_sizes":[],"default_left":[1,1,1,1,1,1,1,0,1,0,0,1,1,0,0,0,1,0,0,1,1,0,0,1,1,0,0,0,0,1,1,0,0,0,0],"id":37,"left_children":[1,3,5,7,9,11,13,-1,15,-1,-1,17,19,-1,-1,-1,21,-1,-1,23,25,-1,-1,27,29,-1,-1,-1,-1,31,33,-1,-1,-1,-1],"loss_changes":[8.950876E-2,1.5447013E-1,1.6703276E-1,2.0297934E-1,2.0377833E-1,1.3865386E-1,1.7659335E-1,0E0,1.8749131E-1,0E0,0E0,1.2891021E-1,2.520735E-1,0E0,0E0,0E0,5.1841885E-2,0E0,0E0,1.575906E-1,3.0248263E-1,0E0,0E0,3.0320367E-1,2.5845063E-1,0E0,0E0,0E0,0E0,1.07148886E-1,1.1884595E-1,0E0,0E0,0E0,0E0],"parents":[2147483647,0,0,1,1,2,2,3,3,4,4,5,5,6,6,8,8,11,11,12,12,16,16,19,19,20,20,23,23,24,24,29,29,30,30],"right_children":[2,4,6,8,10,12,14,-1,16,-1,-1,18,20,-1,-1,-1,22,-1,-1,24,26,-1,-1,28,30,-1,-1,-1,-1,32,34,-1,-1,-1,-1],"split_conditions":[1.145E2,4.228E3,5E-1,2.389E3,4.5915E3,5E-1,1.545E2,-9.8821774E-2,5E-1,-2.2783838E-1,1.4566614E-4,1.4720609E2,2.365E2,1.9840653E-1,-2.2488764E-2,-7.294788E-2,3.505E3,-1.4184439E-1,3.7235096E-2,3.8295E3,3.1E2,1.5162307E-1,1.5399247E-2,2.9145E3,5.9145E3,-1.6909498E-1,6.964547E-2,1.3285722E-1,-1.1526149E-1,4.694E3,1.56E2,3.9067414E-2,2.517053E-1,-8.126226E-2,6.78222E-2],"split_indices":[2,0,5,0,0,13,2,0,13,0,0,2,2,0,0,0,0,0,0,0,2,0,0,0,0,0,0,0,0,0,2,0,0,0,0],"split_type":[0,0,0,0,0,0,0,0,0,0,0,0,0,0,0,0,0,0,0,0,0,0,0,0,0,0,0,0,0,0,0,0,0,0,0],"sum_hessian":[2.7970669E1,9.251819E0,1.871885E1,6.329937E0,2.9218817E0,1.6218687E1,2.5001628E0,1.9434673E0,4.38647E0,1.023157E0,1.8987247E0,2.9203367E0,1.329835E1,1.3166281E0,1.1835346E0,1.0892828E0,3.2971869E0,1.90853E0,1.0118066E0,9.562886E0,3.7354639E0,2.0721505E0,1.2250364E0,3.2221947E0,6.3406916E0,2.20884E0,1.526624E0,1.020405E0,2.2017896E0,2.932382E0,3.4083095E0,1.3247097E0,1.6076726E0,1.4172449E0,1.9910645E0],"tree_param":{"num_deleted":"0","num_feature":"20","num_nodes":"35","size_leaf_vector":"0"}},{"base_weights":[1.0281324E-3,2.0234868E-2,-2.576142E-1,-1.718701E-1,4.5142304E-2,-2.1838488E-1,-5.7369664E-2,6.53518E-2,-1.8488416E-1,1.7300647E-2,2.0078024E-1,5.1195767E-2,-2.7483767E-1,6.816919E-4,3.0127916E-1,1.4568593E-1,-6.865294E-2,7.74408E-2,-7.6951906E-2,4.982495E-1,-8.562453E-2,-1.90772E-1,2.1774544E-1,-1.6460976E-1,7.661883E-2],"categories":[],"categories_nodes":[],"categories_segments":[],"categories_sizes":[],"default_left":[1,1,0,1,1,0,0,1,0,1,1,1,0,1,1,1,1,0,0,0,0,0,0,0,0],"id":38,"left_children":[1,3,-1,5,7,-1,-1,9,-1,11,13,15,-1,17,19,21,23,-1,-1,-1,-1,-1,-1,-1,-1],"loss_changes":[1.4553213E-1,1.3800716E-1,0E0,5.21902E-3,1.2778345E-1,0E0,0E0,1.5021747E-1,0E0,1.9752298E-1,1.2228009E-1,2.0754209E-1,0E0,2.4066681E-2,3.514776E-1,2.8578323E-1,1.292831E-1,0E0,0E0,0E0,0E0,0E0,0E0,0E0,0E0],"parents":[2147483647,0,0,1,1,3,3,4,4,7,7,9,9,10,10,11,11,13,13,14,14,15,15,16,16],"right_children":[2,4,-1,6,8,-1,-1,10,-1,12,14,16,-1,18,20,22,24,-1,-1,-1,-1,-1,-1,-1,-1],"split_conditions":[4.2E2,4.210993E-1,-1.288071E-1,4.3165E3,1.8249E4,-1.0919244E-1,-2.8684832E-2,1.78E2,-9.244208E-2,1.69E2,6.0815E3,4.1955E3,-1.3741884E-1,2.275E2,5E-1,3.21E2,5E-1,3.87204E-2,-3.8475953E-2,2.4912475E-1,-4.2812265E-2,-9.5386E-2,1.0887272E-1,-8.230488E-2,3.8309414E-2],"split_indices":[3,4,0,0,0,0,0,2,0,2,0,0,0,2,7,3,19,0,0,0,0,0,0,0,0],"split_type":[0,0,0,0,0,0,0,0,0,0,0,0,0,0,0,0,0,0,0,0,0,0,0,0,0],"sum_hessian":[2.7246485E1,2.6221077E1,1.0254077E0,2.3322961E0,2.388878E1,1.0133481E0,1.3189481E0,2.261756E1,1.2712224E0,1.752669E1,5.0908694E0,1.644359E1,1.0830997E0,2.0386312E0,3.0522382E0,9.0739765E0,7.3696136E0,1.0263379E0,1.0122935E0,1.8318615E0,1.2203767E0,1.3099902E0,7.763986E0,4.3579364E0,3.011677E0],"tree_param":{"num_deleted":"0","num_feature":"20","num_nodes":"25",